<?xml version="1.0"?>
<opencv_storage>
<stage24>
  <maxWeakCount>66</maxWeakCount>
  <stageThreshold>-5.5088037252426147e-01</stageThreshold>
  <weakClassifiers>
    <_>
      <internalNodes>
        0 -1 10176 8.6091499542817473e-04</internalNodes>
      <leafValues>
        1.8670438230037689e-01 6.7384105920791626e-01</leafValues></_>
    <_>
      <internalNodes>
        0 -1 39994 7.9902401193976402e-03</internalNodes>
      <leafValues>
        -1.8427318334579468e-01 2.7932471036911011e-01</leafValues></_>
    <_>
      <internalNodes>
        0 -1 39816 -8.1546427682042122e-03</internalNodes>
      <leafValues>
        5.1144045591354370e-01 -7.5414627790451050e-02</leafValues></_>
    <_>
      <internalNodes>
        0 -1 73839 1.0085701942443848e-03</internalNodes>
      <leafValues>
        -1.4981888234615326e-01 2.1514116227626801e-01</leafValues></_>
    <_>
      <internalNodes>
        0 -1 77836 2.8690798208117485e-02</internalNodes>
      <leafValues>
        9.2369712889194489e-02 -3.4537237882614136e-01</leafValues></_>
    <_>
      <internalNodes>
        0 -1 78223 4.2228964157402515e-03</internalNodes>
      <leafValues>
        -6.1953544616699219e-02 4.3748506903648376e-01</leafValues></_>
    <_>
      <internalNodes>
        0 -1 77204 6.5722428262233734e-03</internalNodes>
      <leafValues>
        -1.2151821702718735e-01 2.3405285179615021e-01</leafValues></_>
    <_>
      <internalNodes>
        0 -1 71699 -9.2100072652101517e-04</internalNodes>
      <leafValues>
        2.7526974678039551e-01 -1.2649765610694885e-01</leafValues></_>
    <_>
      <internalNodes>
        0 -1 1247 7.7017815783619881e-03</internalNodes>
      <leafValues>
        -1.5723724663257599e-01 1.8198542296886444e-01</leafValues></_>
    <_>
      <internalNodes>
        0 -1 62549 -3.4356169402599335e-02</internalNodes>
      <leafValues>
        -5.6598800420761108e-01 2.9949570074677467e-02</leafValues></_>
    <_>
      <internalNodes>
        0 -1 53453 -9.1545697068795562e-04</internalNodes>
      <leafValues>
        1.1685218662023544e-01 -2.1660681068897247e-01</leafValues></_>
    <_>
      <internalNodes>
        0 -1 8818 6.8724900484085083e-02</internalNodes>
      <leafValues>
        3.6071915179491043e-02 -6.9975978136062622e-01</leafValues></_>
    <_>
      <internalNodes>
        0 -1 6389 1.8517405260354280e-03</internalNodes>
      <leafValues>
        -1.0163842886686325e-01 2.3368614912033081e-01</leafValues></_>
    <_>
      <internalNodes>
        0 -1 3907 -4.8550767824053764e-03</internalNodes>
      <leafValues>
        2.7947202324867249e-01 -1.0721962898969650e-01</leafValues></_>
    <_>
      <internalNodes>
        0 -1 13098 -7.1437265723943710e-03</internalNodes>
      <leafValues>
        -2.9113507270812988e-01 8.9325129985809326e-02</leafValues></_>
    <_>
      <internalNodes>
        0 -1 13339 -1.0839216411113739e-02</internalNodes>
      <leafValues>
        -5.5489891767501831e-01 4.1553284972906113e-02</leafValues></_>
    <_>
      <internalNodes>
        0 -1 7716 5.0252865999937057e-02</internalNodes>
      <leafValues>
        2.8992593288421631e-02 -6.8031251430511475e-01</leafValues></_>
    <_>
      <internalNodes>
        0 -1 28714 -8.6838228162378073e-04</internalNodes>
      <leafValues>
        1.5849661827087402e-01 -1.3319696485996246e-01</leafValues></_>
    <_>
      <internalNodes>
        0 -1 28254 5.0394739955663681e-03</internalNodes>
      <leafValues>
        -7.9466931521892548e-02 2.9952874779701233e-01</leafValues></_>
    <_>
      <internalNodes>
        0 -1 5378 3.1046310905367136e-03</internalNodes>
      <leafValues>
        6.1732832342386246e-02 -3.6035192012786865e-01</leafValues></_>
    <_>
      <internalNodes>
        0 -1 4885 5.1049538888037205e-03</internalNodes>
      <leafValues>
        -8.9808456599712372e-02 2.2696967422962189e-01</leafValues></_>
    <_>
      <internalNodes>
        0 -1 78030 -2.5075336452573538e-04</internalNodes>
      <leafValues>
        -2.1581187844276428e-01 9.7255319356918335e-02</leafValues></_>
    <_>
      <internalNodes>
        0 -1 45619 -1.1933769565075636e-03</internalNodes>
      <leafValues>
        -4.3997013568878174e-01 4.6341311186552048e-02</leafValues></_>
    <_>
      <internalNodes>
        0 -1 75647 -1.3828171417117119e-02</internalNodes>
      <leafValues>
        4.9074321985244751e-01 -4.2685367166996002e-02</leafValues></_>
    <_>
      <internalNodes>
        0 -1 76850 2.0760688930749893e-03</internalNodes>
      <leafValues>
        -1.4664533734321594e-01 1.5393415093421936e-01</leafValues></_>
    <_>
      <internalNodes>
        0 -1 77080 4.1775126010179520e-03</internalNodes>
      <leafValues>
        5.6359179317951202e-02 -4.5768398046493530e-01</leafValues></_>
    <_>
      <internalNodes>
        0 -1 42589 5.1319459453225136e-03</internalNodes>
      <leafValues>
        3.2754752784967422e-02 -6.3433915376663208e-01</leafValues></_>
    <_>
      <internalNodes>
        0 -1 52645 -4.2500854760874063e-05</internalNodes>
      <leafValues>
        1.0615454614162445e-01 -1.8428291380405426e-01</leafValues></_>
    <_>
      <internalNodes>
        0 -1 32402 1.1368035338819027e-03</internalNodes>
      <leafValues>
        -1.3226413726806641e-01 1.5674130618572235e-01</leafValues></_>
    <_>
      <internalNodes>
        0 -1 19085 1.9070628285408020e-01</internalNodes>
      <leafValues>
        -3.1118171289563179e-02 6.7958319187164307e-01</leafValues></_>
    <_>
      <internalNodes>
        0 -1 62074 3.5743014886975288e-03</internalNodes>
      <leafValues>
        5.7106275111436844e-02 -3.9001920819282532e-01</leafValues></_>
    <_>
      <internalNodes>
        0 -1 28254 -8.9686699211597443e-03</internalNodes>
      <leafValues>
        3.6029368638992310e-01 -5.7763233780860901e-02</leafValues></_>
    <_>
      <internalNodes>
        0 -1 9027 -3.2728194491937757e-04</internalNodes>
      <leafValues>
        1.6585500538349152e-01 -1.5946412086486816e-01</leafValues></_>
    <_>
      <internalNodes>
        0 -1 62226 2.1445024758577347e-02</internalNodes>
      <leafValues>
        -5.4308358579874039e-02 3.3670413494110107e-01</leafValues></_>
    <_>
      <internalNodes>
        0 -1 24332 2.1564319729804993e-01</internalNodes>
      <leafValues>
        -3.9319667965173721e-02 5.1137179136276245e-01</leafValues></_>
    <_>
      <internalNodes>
        0 -1 8427 -4.8927746713161469e-02</internalNodes>
      <leafValues>
        -5.1289170980453491e-01 4.8366092145442963e-02</leafValues></_>
    <_>
      <internalNodes>
        0 -1 42797 2.5663496926426888e-03</internalNodes>
      <leafValues>
        -1.3089938461780548e-01 1.4362619817256927e-01</leafValues></_>
    <_>
      <internalNodes>
        0 -1 17027 -4.6470642089843750e-02</internalNodes>
      <leafValues>
        2.2450445592403412e-01 -1.0332931578159332e-01</leafValues></_>
    <_>
      <internalNodes>
        0 -1 63615 -3.9179093437269330e-04</internalNodes>
      <leafValues>
        -1.9622252881526947e-01 1.1349759250879288e-01</leafValues></_>
    <_>
      <internalNodes>
        0 -1 39061 -1.1830373108386993e-01</internalNodes>
      <leafValues>
        -4.9450707435607910e-01 3.9600789546966553e-02</leafValues></_>
    <_>
      <internalNodes>
        0 -1 8062 2.6953529566526413e-02</internalNodes>
      <leafValues>
        4.8171423375606537e-02 -3.6076381802558899e-01</leafValues></_>
    <_>
      <internalNodes>
        0 -1 870 -1.6212165355682373e-02</internalNodes>
      <leafValues>
        -5.3217089176177979e-01 3.5126883536577225e-02</leafValues></_>
    <_>
      <internalNodes>
        0 -1 45619 -4.7551286115776747e-05</internalNodes>
      <leafValues>
        1.3333690166473389e-01 -1.3407021760940552e-01</leafValues></_>
    <_>
      <internalNodes>
        0 -1 73484 -1.1069183237850666e-03</internalNodes>
      <leafValues>
        2.4698555469512939e-01 -7.4640475213527679e-02</leafValues></_>
    <_>
      <internalNodes>
        0 -1 54276 1.5719505026936531e-03</internalNodes>
      <leafValues>
        -1.2477418780326843e-01 1.5233841538429260e-01</leafValues></_>
    <_>
      <internalNodes>
        0 -1 58402 -1.0751001536846161e-03</internalNodes>
      <leafValues>
        1.4521905779838562e-01 -1.5777471661567688e-01</leafValues></_>
    <_>
      <internalNodes>
        0 -1 49865 -4.9520852044224739e-03</internalNodes>
      <leafValues>
        -5.6558388471603394e-01 4.4085077941417694e-02</leafValues></_>
    <_>
      <internalNodes>
        0 -1 15366 1.0952760465443134e-02</internalNodes>
      <leafValues>
        -1.0503177344799042e-01 1.9906988739967346e-01</leafValues></_>
    <_>
      <internalNodes>
        0 -1 56408 -4.7656483948230743e-03</internalNodes>
      <leafValues>
        3.8546442985534668e-01 -5.7268016040325165e-02</leafValues></_>
    <_>
      <internalNodes>
        0 -1 40167 -2.4169879034161568e-03</internalNodes>
      <leafValues>
        3.0939617753028870e-01 -6.9278150796890259e-02</leafValues></_>
    <_>
      <internalNodes>
        0 -1 63332 -1.8356562941335142e-04</internalNodes>
      <leafValues>
        -2.1274268627166748e-01 1.0356329381465912e-01</leafValues></_>
    <_>
      <internalNodes>
        0 -1 76620 -8.8787596905604005e-04</internalNodes>
      <leafValues>
        2.4188858270645142e-01 -7.7676624059677124e-02</leafValues></_>
    <_>
      <internalNodes>
        0 -1 10237 -2.3422543890774250e-03</internalNodes>
      <leafValues>
        1.7199361324310303e-01 -1.1408787965774536e-01</leafValues></_>
    <_>
      <internalNodes>
        0 -1 25381 2.8208407456986606e-04</internalNodes>
      <leafValues>
        8.8062949478626251e-02 -2.4503736197948456e-01</leafValues></_>
    <_>
      <internalNodes>
        0 -1 2817 -7.1592633612453938e-03</internalNodes>
      <leafValues>
        2.1565978229045868e-01 -1.0073048621416092e-01</leafValues></_>
    <_>
      <internalNodes>
        0 -1 54723 4.7982633113861084e-02</internalNodes>
      <leafValues>
        -3.8737788796424866e-02 4.9550032615661621e-01</leafValues></_>
    <_>
      <internalNodes>
        0 -1 72503 -6.7944551119580865e-04</internalNodes>
      <leafValues>
        1.4365603029727936e-01 -1.4314530789852142e-01</leafValues></_>
    <_>
      <internalNodes>
        0 -1 77659 3.5906764678657055e-03</internalNodes>
      <leafValues>
        2.4822151288390160e-02 -8.5488933324813843e-01</leafValues></_>
    <_>
      <internalNodes>
        0 -1 540 9.7796007990837097e-02</internalNodes>
      <leafValues>
        1.8299415707588196e-02 -8.2370382547378540e-01</leafValues></_>
    <_>
      <internalNodes>
        0 -1 50981 -3.9135236293077469e-03</internalNodes>
      <leafValues>
        -1.9099223613739014e-01 9.7215779125690460e-02</leafValues></_>
    <_>
      <internalNodes>
        0 -1 75568 2.3626398760825396e-03</internalNodes>
      <leafValues>
        -1.4859306812286377e-01 1.2567694485187531e-01</leafValues></_>
    <_>
      <internalNodes>
        0 -1 69584 8.7632089853286743e-03</internalNodes>
      <leafValues>
        5.5409595370292664e-02 -4.2771622538566589e-01</leafValues></_>
    <_>
      <internalNodes>
        0 -1 75171 7.6119985897094011e-04</internalNodes>
      <leafValues>
        8.2174852490425110e-02 -2.5673210620880127e-01</leafValues></_>
    <_>
      <internalNodes>
        0 -1 14973 4.9583464860916138e-03</internalNodes>
      <leafValues>
        -1.2914307415485382e-01 1.5879139304161072e-01</leafValues></_>
    <_>
      <internalNodes>
        0 -1 43631 -5.7812528684735298e-03</internalNodes>
      <leafValues>
        -1.9478650391101837e-01 9.4780288636684418e-02</leafValues></_>
    <_>
      <internalNodes>
        0 -1 750 5.4602068848907948e-04</internalNodes>
      <leafValues>
        1.1090283840894699e-01 -1.8932227790355682e-01</leafValues></_></weakClassifiers></stage24>
</opencv_storage>
