<?xml version="1.0"?>
<opencv_storage>
<stage14>
  <maxWeakCount>43</maxWeakCount>
  <stageThreshold>-7.0845168828964233e-01</stageThreshold>
  <weakClassifiers>
    <_>
      <internalNodes>
        0 -1 28649 1.1059786193072796e-03</internalNodes>
      <leafValues>
        9.6678964793682098e-02 7.4743491411209106e-01</leafValues></_>
    <_>
      <internalNodes>
        0 -1 75454 -2.7909777127206326e-03</internalNodes>
      <leafValues>
        5.2308934926986694e-01 -1.2593516707420349e-01</leafValues></_>
    <_>
      <internalNodes>
        0 -1 19 5.3581418469548225e-03</internalNodes>
      <leafValues>
        -1.4879071712493896e-01 4.3883964419364929e-01</leafValues></_>
    <_>
      <internalNodes>
        0 -1 71494 -4.2891693301498890e-03</internalNodes>
      <leafValues>
        3.3869028091430664e-01 -1.5565733611583710e-01</leafValues></_>
    <_>
      <internalNodes>
        0 -1 15366 7.1623353287577629e-03</internalNodes>
      <leafValues>
        -1.1129941046237946e-01 3.0996441841125488e-01</leafValues></_>
    <_>
      <internalNodes>
        0 -1 5 -6.0292112175375223e-04</internalNodes>
      <leafValues>
        -3.7247720360755920e-01 9.6052050590515137e-02</leafValues></_>
    <_>
      <internalNodes>
        0 -1 2739 -3.3009916078299284e-03</internalNodes>
      <leafValues>
        4.0495443344116211e-01 -9.6269629895687103e-02</leafValues></_>
    <_>
      <internalNodes>
        0 -1 39331 -1.6198218872887082e-05</internalNodes>
      <leafValues>
        1.8206840753555298e-01 -2.3047468066215515e-01</leafValues></_>
    <_>
      <internalNodes>
        0 -1 77870 -1.0446740314364433e-02</internalNodes>
      <leafValues>
        2.8623238205909729e-01 -1.2661939859390259e-01</leafValues></_>
    <_>
      <internalNodes>
        0 -1 77661 -5.3057295735925436e-04</internalNodes>
      <leafValues>
        -3.5981723666191101e-01 9.7756527364253998e-02</leafValues></_>
    <_>
      <internalNodes>
        0 -1 52645 -2.1327610738808289e-05</internalNodes>
      <leafValues>
        1.5628665685653687e-01 -2.3561719059944153e-01</leafValues></_>
    <_>
      <internalNodes>
        0 -1 52818 -3.5170745104551315e-04</internalNodes>
      <leafValues>
        -1.9704373180866241e-01 1.7746129631996155e-01</leafValues></_>
    <_>
      <internalNodes>
        0 -1 14768 4.0723709389567375e-04</internalNodes>
      <leafValues>
        1.1703162640333176e-01 -2.7906191349029541e-01</leafValues></_>
    <_>
      <internalNodes>
        0 -1 334 -9.7027122974395752e-03</internalNodes>
      <leafValues>
        5.8524185419082642e-01 -6.1512120068073273e-02</leafValues></_>
    <_>
      <internalNodes>
        0 -1 45900 -4.1160762310028076e-02</internalNodes>
      <leafValues>
        2.2918894886970520e-01 -1.2761610746383667e-01</leafValues></_>
    <_>
      <internalNodes>
        0 -1 1241 -2.3773627355694771e-02</internalNodes>
      <leafValues>
        -4.1658157110214233e-01 8.6946457624435425e-02</leafValues></_>
    <_>
      <internalNodes>
        0 -1 73502 2.3543853312730789e-03</internalNodes>
      <leafValues>
        -5.7484056800603867e-02 5.9797805547714233e-01</leafValues></_>
    <_>
      <internalNodes>
        0 -1 78301 -2.4339389055967331e-03</internalNodes>
      <leafValues>
        -2.5527068972587585e-01 1.2583605945110321e-01</leafValues></_>
    <_>
      <internalNodes>
        0 -1 7311 -7.1604372933506966e-03</internalNodes>
      <leafValues>
        -5.8870488405227661e-01 4.7917198389768600e-02</leafValues></_>
    <_>
      <internalNodes>
        0 -1 77975 1.2293350882828236e-03</internalNodes>
      <leafValues>
        -1.4449098706245422e-01 2.0793800055980682e-01</leafValues></_>
    <_>
      <internalNodes>
        0 -1 76823 -2.3119214922189713e-02</internalNodes>
      <leafValues>
        2.9346406459808350e-01 -1.0428021103143692e-01</leafValues></_>
    <_>
      <internalNodes>
        0 -1 77499 -5.0480739446356893e-05</internalNodes>
      <leafValues>
        1.6120649874210358e-01 -1.8766759335994720e-01</leafValues></_>
    <_>
      <internalNodes>
        0 -1 39822 -6.7663975059986115e-03</internalNodes>
      <leafValues>
        3.6652788519859314e-01 -8.2655854523181915e-02</leafValues></_>
    <_>
      <internalNodes>
        0 -1 49768 4.7902582446113229e-04</internalNodes>
      <leafValues>
        9.4909019768238068e-02 -3.1614601612091064e-01</leafValues></_>
    <_>
      <internalNodes>
        0 -1 73528 -2.2154745238367468e-05</internalNodes>
      <leafValues>
        1.6875566542148590e-01 -1.7945095896720886e-01</leafValues></_>
    <_>
      <internalNodes>
        0 -1 66549 9.7891520708799362e-03</internalNodes>
      <leafValues>
        7.3065727949142456e-02 -4.1283866763114929e-01</leafValues></_>
    <_>
      <internalNodes>
        0 -1 54759 -4.1871378198266029e-03</internalNodes>
      <leafValues>
        2.0010054111480713e-01 -1.3667142391204834e-01</leafValues></_>
    <_>
      <internalNodes>
        0 -1 1077 -2.1563339978456497e-02</internalNodes>
      <leafValues>
        2.9919409751892090e-01 -1.1517174541950226e-01</leafValues></_>
    <_>
      <internalNodes>
        0 -1 667 5.8245364576578140e-02</internalNodes>
      <leafValues>
        -1.6924713551998138e-01 1.7992143332958221e-01</leafValues></_>
    <_>
      <internalNodes>
        0 -1 21461 -5.7853403268381953e-04</internalNodes>
      <leafValues>
        2.9684004187583923e-01 -9.8593428730964661e-02</leafValues></_>
    <_>
      <internalNodes>
        0 -1 34266 1.8464779481291771e-02</internalNodes>
      <leafValues>
        4.7758340835571289e-02 -6.3034915924072266e-01</leafValues></_>
    <_>
      <internalNodes>
        0 -1 62756 -2.0155704114586115e-03</internalNodes>
      <leafValues>
        -3.5719701647758484e-01 8.1461682915687561e-02</leafValues></_>
    <_>
      <internalNodes>
        0 -1 35817 8.7355881987605244e-05</internalNodes>
      <leafValues>
        -1.8299339711666107e-01 1.4053457975387573e-01</leafValues></_>
    <_>
      <internalNodes>
        0 -1 72379 2.2767826521885581e-05</internalNodes>
      <leafValues>
        -1.5004540979862213e-01 2.0434956252574921e-01</leafValues></_>
    <_>
      <internalNodes>
        0 -1 63035 1.4205408515408635e-03</internalNodes>
      <leafValues>
        5.1069974899291992e-02 -5.2833443880081177e-01</leafValues></_>
    <_>
      <internalNodes>
        0 -1 77900 -3.0169184319674969e-03</internalNodes>
      <leafValues>
        3.6388269066810608e-01 -7.8046664595603943e-02</leafValues></_>
    <_>
      <internalNodes>
        0 -1 7444 2.9487206484191120e-04</internalNodes>
      <leafValues>
        1.0914726555347443e-01 -2.5483402609825134e-01</leafValues></_>
    <_>
      <internalNodes>
        0 -1 15578 -9.0731643140316010e-03</internalNodes>
      <leafValues>
        2.6687458157539368e-01 -1.0278823971748352e-01</leafValues></_>
    <_>
      <internalNodes>
        0 -1 74758 -4.3422004091553390e-04</internalNodes>
      <leafValues>
        -2.9270294308662415e-01 1.0402929782867432e-01</leafValues></_>
    <_>
      <internalNodes>
        0 -1 47250 -3.1010588281787932e-04</internalNodes>
      <leafValues>
        -2.3367621004581451e-01 1.2419499456882477e-01</leafValues></_>
    <_>
      <internalNodes>
        0 -1 29025 1.1774403601884842e-01</internalNodes>
      <leafValues>
        -7.1836777031421661e-02 3.9535176753997803e-01</leafValues></_>
    <_>
      <internalNodes>
        0 -1 29755 -1.7585881869308650e-04</internalNodes>
      <leafValues>
        -2.4419982731342316e-01 1.3163518905639648e-01</leafValues></_>
    <_>
      <internalNodes>
        0 -1 12248 9.9897701293230057e-03</internalNodes>
      <leafValues>
        -1.2337946891784668e-01 2.4576900899410248e-01</leafValues></_></weakClassifiers></stage14>
</opencv_storage>
