<?xml version="1.0"?>
<opencv_storage>
<stage22>
  <maxWeakCount>68</maxWeakCount>
  <stageThreshold>-6.7404139041900635e-01</stageThreshold>
  <weakClassifiers>
    <_>
      <internalNodes>
        0 -1 3325 3.8504628464579582e-03</internalNodes>
      <leafValues>
        2.0554855465888977e-01 7.2586870193481445e-01</leafValues></_>
    <_>
      <internalNodes>
        0 -1 34645 1.3498753309249878e-02</internalNodes>
      <leafValues>
        -1.2665277719497681e-01 4.1990506649017334e-01</leafValues></_>
    <_>
      <internalNodes>
        0 -1 77976 1.7512253252789378e-03</internalNodes>
      <leafValues>
        -1.8273079395294189e-01 1.8649411201477051e-01</leafValues></_>
    <_>
      <internalNodes>
        0 -1 6396 4.6846717596054077e-03</internalNodes>
      <leafValues>
        -8.4915444254875183e-02 3.7538453936576843e-01</leafValues></_>
    <_>
      <internalNodes>
        0 -1 7333 -6.8891858682036400e-03</internalNodes>
      <leafValues>
        2.4349598586559296e-01 -1.4220355451107025e-01</leafValues></_>
    <_>
      <internalNodes>
        0 -1 35103 9.0093780308961868e-03</internalNodes>
      <leafValues>
        -2.0294825732707977e-01 1.4075435698032379e-01</leafValues></_>
    <_>
      <internalNodes>
        0 -1 9454 4.1329011321067810e-02</internalNodes>
      <leafValues>
        6.5601542592048645e-02 -5.2357745170593262e-01</leafValues></_>
    <_>
      <internalNodes>
        0 -1 76133 -5.3677028045058250e-03</internalNodes>
      <leafValues>
        -4.8869627714157104e-01 5.0253674387931824e-02</leafValues></_>
    <_>
      <internalNodes>
        0 -1 3330 -3.2204086892306805e-03</internalNodes>
      <leafValues>
        3.7076106667518616e-01 -7.5532935559749603e-02</leafValues></_>
    <_>
      <internalNodes>
        0 -1 16703 2.1295080659911036e-04</internalNodes>
      <leafValues>
        -1.6550277173519135e-01 1.7254985868930817e-01</leafValues></_>
    <_>
      <internalNodes>
        0 -1 4482 -1.5210975892841816e-02</internalNodes>
      <leafValues>
        -4.1308563947677612e-01 5.6973949074745178e-02</leafValues></_>
    <_>
      <internalNodes>
        0 -1 78299 -3.7040039896965027e-03</internalNodes>
      <leafValues>
        -3.7627068161964417e-01 6.1538290232419968e-02</leafValues></_>
    <_>
      <internalNodes>
        0 -1 12960 -9.8711415193974972e-04</internalNodes>
      <leafValues>
        -3.6761385202407837e-01 5.9729300439357758e-02</leafValues></_>
    <_>
      <internalNodes>
        0 -1 75512 -7.0761627284809947e-04</internalNodes>
      <leafValues>
        1.5141819417476654e-01 -1.4968886971473694e-01</leafValues></_>
    <_>
      <internalNodes>
        0 -1 71490 5.0135245546698570e-03</internalNodes>
      <leafValues>
        -7.2485759854316711e-02 4.8095297813415527e-01</leafValues></_>
    <_>
      <internalNodes>
        0 -1 37798 -4.2731506255222484e-05</internalNodes>
      <leafValues>
        1.4092971384525299e-01 -1.7148967087268829e-01</leafValues></_>
    <_>
      <internalNodes>
        0 -1 74802 -1.3684948906302452e-02</internalNodes>
      <leafValues>
        3.4345465898513794e-01 -7.1102812886238098e-02</leafValues></_>
    <_>
      <internalNodes>
        0 -1 78082 3.9574201218783855e-03</internalNodes>
      <leafValues>
        -8.8573180139064789e-02 2.5845673680305481e-01</leafValues></_>
    <_>
      <internalNodes>
        0 -1 27837 6.2661729753017426e-02</internalNodes>
      <leafValues>
        3.5643566399812698e-02 -6.8752855062484741e-01</leafValues></_>
    <_>
      <internalNodes>
        0 -1 62549 -2.4384438991546631e-02</internalNodes>
      <leafValues>
        -3.8911408185958862e-01 5.6158073246479034e-02</leafValues></_>
    <_>
      <internalNodes>
        0 -1 66033 3.5681913141161203e-04</internalNodes>
      <leafValues>
        -1.4775195717811584e-01 1.7646597325801849e-01</leafValues></_>
    <_>
      <internalNodes>
        0 -1 54823 7.6822349801659584e-03</internalNodes>
      <leafValues>
        -5.5347040295600891e-02 3.6223855614662170e-01</leafValues></_>
    <_>
      <internalNodes>
        0 -1 62554 -3.7602358497679234e-03</internalNodes>
      <leafValues>
        1.9489392638206482e-01 -1.2023669481277466e-01</leafValues></_>
    <_>
      <internalNodes>
        0 -1 74327 -7.9047528561204672e-04</internalNodes>
      <leafValues>
        -2.4854759871959686e-01 9.3378968536853790e-02</leafValues></_>
    <_>
      <internalNodes>
        0 -1 67454 -5.9731146320700645e-03</internalNodes>
      <leafValues>
        -5.4078167676925659e-01 3.7149041891098022e-02</leafValues></_>
    <_>
      <internalNodes>
        0 -1 74089 -8.9126667007803917e-03</internalNodes>
      <leafValues>
        -7.0743376016616821e-01 2.6832340285181999e-02</leafValues></_>
    <_>
      <internalNodes>
        0 -1 21461 -1.5375921502709389e-03</internalNodes>
      <leafValues>
        3.7279719114303589e-01 -6.0243986546993256e-02</leafValues></_>
    <_>
      <internalNodes>
        0 -1 21104 -2.8694567736238241e-03</internalNodes>
      <leafValues>
        -7.0037978887557983e-01 3.3440291881561279e-02</leafValues></_>
    <_>
      <internalNodes>
        0 -1 71415 1.7404860258102417e-01</internalNodes>
      <leafValues>
        2.2994799539446831e-02 -7.2723323106765747e-01</leafValues></_>
    <_>
      <internalNodes>
        0 -1 65710 8.4427348338067532e-04</internalNodes>
      <leafValues>
        6.5265774726867676e-02 -3.1639248132705688e-01</leafValues></_>
    <_>
      <internalNodes>
        0 -1 62857 1.5114465495571494e-03</internalNodes>
      <leafValues>
        -1.3382403552532196e-01 1.6916905343532562e-01</leafValues></_>
    <_>
      <internalNodes>
        0 -1 65751 3.6124757025390863e-03</internalNodes>
      <leafValues>
        5.6212801486253738e-02 -3.8797113299369812e-01</leafValues></_>
    <_>
      <internalNodes>
        0 -1 78435 -6.9390144199132919e-04</internalNodes>
      <leafValues>
        2.1389843523502350e-01 -9.6091262996196747e-02</leafValues></_>
    <_>
      <internalNodes>
        0 -1 73516 -3.6433137953281403e-02</internalNodes>
      <leafValues>
        -8.2048493623733521e-01 2.8891218826174736e-02</leafValues></_>
    <_>
      <internalNodes>
        0 -1 5746 -1.1431653052568436e-02</internalNodes>
      <leafValues>
        2.8746092319488525e-01 -8.7334692478179932e-02</leafValues></_>
    <_>
      <internalNodes>
        0 -1 25505 2.4324639234691858e-03</internalNodes>
      <leafValues>
        -1.2732975184917450e-01 1.9494716823101044e-01</leafValues></_>
    <_>
      <internalNodes>
        0 -1 30758 -6.1500556766986847e-03</internalNodes>
      <leafValues>
        -4.0695142745971680e-01 6.5649434924125671e-02</leafValues></_>
    <_>
      <internalNodes>
        0 -1 73084 1.3814938720315695e-03</internalNodes>
      <leafValues>
        -1.4039169251918793e-01 1.7107167840003967e-01</leafValues></_>
    <_>
      <internalNodes>
        0 -1 70061 -4.2666001245379448e-03</internalNodes>
      <leafValues>
        2.0242348313331604e-01 -1.2258624285459518e-01</leafValues></_>
    <_>
      <internalNodes>
        0 -1 42996 2.4920020252466202e-02</internalNodes>
      <leafValues>
        4.5192033052444458e-02 -6.0637062788009644e-01</leafValues></_>
    <_>
      <internalNodes>
        0 -1 6426 8.5409218445420265e-03</internalNodes>
      <leafValues>
        -9.7480699419975281e-02 2.2899506986141205e-01</leafValues></_>
    <_>
      <internalNodes>
        0 -1 1511 -1.4819260686635971e-03</internalNodes>
      <leafValues>
        1.7253661155700684e-01 -1.4250917732715607e-01</leafValues></_>
    <_>
      <internalNodes>
        0 -1 2226 -2.6147551834583282e-03</internalNodes>
      <leafValues>
        2.5699999928474426e-01 -9.2446014285087585e-02</leafValues></_>
    <_>
      <internalNodes>
        0 -1 21595 -6.5747881308197975e-03</internalNodes>
      <leafValues>
        -7.8476709127426147e-01 2.6779115200042725e-02</leafValues></_>
    <_>
      <internalNodes>
        0 -1 52686 2.1383275743573904e-03</internalNodes>
      <leafValues>
        -8.1120684742927551e-02 2.8151446580886841e-01</leafValues></_>
    <_>
      <internalNodes>
        0 -1 52114 4.7747649252414703e-02</internalNodes>
      <leafValues>
        3.4745082259178162e-02 -6.8900680541992188e-01</leafValues></_>
    <_>
      <internalNodes>
        0 -1 8660 2.3505368828773499e-01</internalNodes>
      <leafValues>
        -6.5131872892379761e-02 3.4421163797378540e-01</leafValues></_>
    <_>
      <internalNodes>
        0 -1 28067 8.2199405878782272e-03</internalNodes>
      <leafValues>
        4.1273146867752075e-02 -5.5965602397918701e-01</leafValues></_>
    <_>
      <internalNodes>
        0 -1 74971 -6.4825214212760329e-04</internalNodes>
      <leafValues>
        -3.0204662680625916e-01 6.6490605473518372e-02</leafValues></_>
    <_>
      <internalNodes>
        0 -1 68690 -4.7039170749485493e-03</internalNodes>
      <leafValues>
        3.8503924012184143e-01 -5.2224956452846527e-02</leafValues></_>
    <_>
      <internalNodes>
        0 -1 3875 8.9034345000982285e-03</internalNodes>
      <leafValues>
        -3.6337289959192276e-02 5.5413335561752319e-01</leafValues></_>
    <_>
      <internalNodes>
        0 -1 128 1.2639841437339783e-01</internalNodes>
      <leafValues>
        2.9748076573014259e-02 -7.4864906072616577e-01</leafValues></_>
    <_>
      <internalNodes>
        0 -1 27790 -1.9960955251008272e-03</internalNodes>
      <leafValues>
        -4.4548669457435608e-01 4.3826576322317123e-02</leafValues></_>
    <_>
      <internalNodes>
        0 -1 7334 6.3429167494177818e-03</internalNodes>
      <leafValues>
        -7.3797203600406647e-02 2.9351443052291870e-01</leafValues></_>
    <_>
      <internalNodes>
        0 -1 73317 5.3084176033735275e-04</internalNodes>
      <leafValues>
        -1.2448814511299133e-01 1.9056741893291473e-01</leafValues></_>
    <_>
      <internalNodes>
        0 -1 77658 -9.3031313735991716e-04</internalNodes>
      <leafValues>
        -2.1661905944347382e-01 1.1201182752847672e-01</leafValues></_>
    <_>
      <internalNodes>
        0 -1 14471 -7.4214604683220387e-04</internalNodes>
      <leafValues>
        2.8430905938148499e-01 -8.4755815565586090e-02</leafValues></_>
    <_>
      <internalNodes>
        0 -1 61021 6.8891284172423184e-05</internalNodes>
      <leafValues>
        -1.3134749233722687e-01 1.8388207256793976e-01</leafValues></_>
    <_>
      <internalNodes>
        0 -1 57307 3.2763479975983500e-04</internalNodes>
      <leafValues>
        -1.4084595441818237e-01 1.5780258178710938e-01</leafValues></_>
    <_>
      <internalNodes>
        0 -1 52976 -3.5313465632498264e-03</internalNodes>
      <leafValues>
        1.9559137523174286e-01 -1.1532784998416901e-01</leafValues></_>
    <_>
      <internalNodes>
        0 -1 68184 8.1707915524020791e-04</internalNodes>
      <leafValues>
        -1.5595585107803345e-01 1.6629362106323242e-01</leafValues></_>
    <_>
      <internalNodes>
        0 -1 22364 1.3338032877072692e-03</internalNodes>
      <leafValues>
        -9.1593377292156219e-02 2.6220262050628662e-01</leafValues></_>
    <_>
      <internalNodes>
        0 -1 77707 3.2694651745259762e-03</internalNodes>
      <leafValues>
        4.2098365724086761e-02 -5.3002256155014038e-01</leafValues></_>
    <_>
      <internalNodes>
        0 -1 206 2.0071424543857574e-02</internalNodes>
      <leafValues>
        5.3324755281209946e-02 -3.8784557580947876e-01</leafValues></_>
    <_>
      <internalNodes>
        0 -1 138 -7.1676624938845634e-03</internalNodes>
      <leafValues>
        -3.2316640019416809e-01 6.6289111971855164e-02</leafValues></_>
    <_>
      <internalNodes>
        0 -1 8803 2.6031553745269775e-01</internalNodes>
      <leafValues>
        -3.9193846285343170e-02 5.9158629179000854e-01</leafValues></_>
    <_>
      <internalNodes>
        0 -1 75320 -5.0683147273957729e-03</internalNodes>
      <leafValues>
        4.9348586797714233e-01 -3.9081059396266937e-02</leafValues></_>
    <_>
      <internalNodes>
        0 -1 597 3.2711678650230169e-03</internalNodes>
      <leafValues>
        -1.4291420578956604e-01 1.7845323681831360e-01</leafValues></_></weakClassifiers></stage22>
</opencv_storage>
