<?xml version="1.0"?>
<opencv_storage>
<stage21>
  <maxWeakCount>57</maxWeakCount>
  <stageThreshold>-5.5896615982055664e-01</stageThreshold>
  <weakClassifiers>
    <_>
      <internalNodes>
        0 -1 2196 2.1278452128171921e-02</internalNodes>
      <leafValues>
        1.7945109307765961e-01 6.8526226282119751e-01</leafValues></_>
    <_>
      <internalNodes>
        0 -1 39989 5.4989238269627094e-03</internalNodes>
      <leafValues>
        -1.7963212728500366e-01 3.4289804100990295e-01</leafValues></_>
    <_>
      <internalNodes>
        0 -1 77013 -1.1166515760123730e-03</internalNodes>
      <leafValues>
        2.2409199178218842e-01 -1.5894302725791931e-01</leafValues></_>
    <_>
      <internalNodes>
        0 -1 50420 1.2206557439640164e-03</internalNodes>
      <leafValues>
        6.4739950001239777e-02 -5.4149764776229858e-01</leafValues></_>
    <_>
      <internalNodes>
        0 -1 3360 1.1747280135750771e-02</internalNodes>
      <leafValues>
        -1.0250240564346313e-01 3.0360248684883118e-01</leafValues></_>
    <_>
      <internalNodes>
        0 -1 6672 -2.7588442899286747e-03</internalNodes>
      <leafValues>
        5.2550995349884033e-01 -1.1710007488727570e-01</leafValues></_>
    <_>
      <internalNodes>
        0 -1 71904 -9.4688439276069403e-04</internalNodes>
      <leafValues>
        2.6024919748306274e-01 -1.1993429064750671e-01</leafValues></_>
    <_>
      <internalNodes>
        0 -1 7544 4.7392235137522221e-03</internalNodes>
      <leafValues>
        4.6778414398431778e-02 -8.2075530290603638e-01</leafValues></_>
    <_>
      <internalNodes>
        0 -1 62490 1.9502524286508560e-02</internalNodes>
      <leafValues>
        5.1711499691009521e-02 -4.9966984987258911e-01</leafValues></_>
    <_>
      <internalNodes>
        0 -1 2142 2.1594181656837463e-02</internalNodes>
      <leafValues>
        6.4169056713581085e-02 -5.1081585884094238e-01</leafValues></_>
    <_>
      <internalNodes>
        0 -1 29552 2.4306615814566612e-03</internalNodes>
      <leafValues>
        -1.6175353527069092e-01 1.8530331552028656e-01</leafValues></_>
    <_>
      <internalNodes>
        0 -1 78138 8.2253455184400082e-04</internalNodes>
      <leafValues>
        6.6550053656101227e-02 -4.0462180972099304e-01</leafValues></_>
    <_>
      <internalNodes>
        0 -1 18791 -1.7167415353469551e-04</internalNodes>
      <leafValues>
        -2.0203885436058044e-01 1.3368868827819824e-01</leafValues></_>
    <_>
      <internalNodes>
        0 -1 28254 1.3803713954985142e-03</internalNodes>
      <leafValues>
        -1.4584699273109436e-01 2.0138667523860931e-01</leafValues></_>
    <_>
      <internalNodes>
        0 -1 48344 1.6269248444586992e-03</internalNodes>
      <leafValues>
        -1.2417858093976974e-01 2.1259412169456482e-01</leafValues></_>
    <_>
      <internalNodes>
        0 -1 41816 -6.8915057927370071e-03</internalNodes>
      <leafValues>
        1.7745079100131989e-01 -1.9324773550033569e-01</leafValues></_>
    <_>
      <internalNodes>
        0 -1 38361 3.0230309348553419e-03</internalNodes>
      <leafValues>
        -1.7525349557399750e-01 1.6469992697238922e-01</leafValues></_>
    <_>
      <internalNodes>
        0 -1 45088 2.9838690534234047e-03</internalNodes>
      <leafValues>
        -1.2260495126247406e-01 2.4064132571220398e-01</leafValues></_>
    <_>
      <internalNodes>
        0 -1 38461 1.1668834835290909e-02</internalNodes>
      <leafValues>
        5.2908770740032196e-02 -5.4365372657775879e-01</leafValues></_>
    <_>
      <internalNodes>
        0 -1 55379 -1.9188849255442619e-03</internalNodes>
      <leafValues>
        -4.7302350401878357e-01 5.0136670470237732e-02</leafValues></_>
    <_>
      <internalNodes>
        0 -1 10179 -2.8288587927818298e-03</internalNodes>
      <leafValues>
        4.7349849343299866e-01 -5.5260341614484787e-02</leafValues></_>
    <_>
      <internalNodes>
        0 -1 67169 9.0625407174229622e-03</internalNodes>
      <leafValues>
        4.6175200492143631e-02 -5.3855925798416138e-01</leafValues></_>
    <_>
      <internalNodes>
        0 -1 78014 1.4506062492728233e-02</internalNodes>
      <leafValues>
        -5.4033976048231125e-02 4.7652739286422729e-01</leafValues></_>
    <_>
      <internalNodes>
        0 -1 77109 4.7986283898353577e-03</internalNodes>
      <leafValues>
        -1.0638865083456039e-01 2.8116798400878906e-01</leafValues></_>
    <_>
      <internalNodes>
        0 -1 18728 3.4201192855834961e-01</internalNodes>
      <leafValues>
        -3.3023718744516373e-02 8.0295693874359131e-01</leafValues></_>
    <_>
      <internalNodes>
        0 -1 12599 -1.4910707250237465e-03</internalNodes>
      <leafValues>
        -5.5764567852020264e-01 5.2383750677108765e-02</leafValues></_>
    <_>
      <internalNodes>
        0 -1 9039 1.7759919166564941e-02</internalNodes>
      <leafValues>
        -3.9851699024438858e-02 6.1815053224563599e-01</leafValues></_>
    <_>
      <internalNodes>
        0 -1 46495 -3.6614149576053023e-04</internalNodes>
      <leafValues>
        -2.1356403827667236e-01 1.1249107867479324e-01</leafValues></_>
    <_>
      <internalNodes>
        0 -1 35350 -1.8405009061098099e-02</internalNodes>
      <leafValues>
        4.5538559556007385e-01 -5.5110141634941101e-02</leafValues></_>
    <_>
      <internalNodes>
        0 -1 57460 -3.5337440203875303e-04</internalNodes>
      <leafValues>
        1.3963718712329865e-01 -1.9651097059249878e-01</leafValues></_>
    <_>
      <internalNodes>
        0 -1 47412 1.4126060530543327e-02</internalNodes>
      <leafValues>
        -1.2596753239631653e-01 2.3490296304225922e-01</leafValues></_>
    <_>
      <internalNodes>
        0 -1 65151 -1.9714698195457458e-02</internalNodes>
      <leafValues>
        -6.2677031755447388e-01 4.2418591678142548e-02</leafValues></_>
    <_>
      <internalNodes>
        0 -1 68975 3.8955922354944050e-04</internalNodes>
      <leafValues>
        -1.8287193775177002e-01 1.3498117029666901e-01</leafValues></_>
    <_>
      <internalNodes>
        0 -1 76750 -7.3372561018913984e-04</internalNodes>
      <leafValues>
        -3.2692098617553711e-01 7.3862031102180481e-02</leafValues></_>
    <_>
      <internalNodes>
        0 -1 68620 1.5793412458151579e-03</internalNodes>
      <leafValues>
        -1.2213092297315598e-01 1.9246973097324371e-01</leafValues></_>
    <_>
      <internalNodes>
        0 -1 71096 -2.4796298239380121e-03</internalNodes>
      <leafValues>
        -4.9578207731246948e-01 5.0232306122779846e-02</leafValues></_>
    <_>
      <internalNodes>
        0 -1 53278 1.0610908269882202e-02</internalNodes>
      <leafValues>
        3.6439966410398483e-02 -6.0653430223464966e-01</leafValues></_>
    <_>
      <internalNodes>
        0 -1 34454 -4.7738607972860336e-03</internalNodes>
      <leafValues>
        -2.5223088264465332e-01 8.8767074048519135e-02</leafValues></_>
    <_>
      <internalNodes>
        0 -1 13685 2.5893133133649826e-02</internalNodes>
      <leafValues>
        -8.2637675106525421e-02 2.8544455766677856e-01</leafValues></_>
    <_>
      <internalNodes>
        0 -1 21150 1.7113175243139267e-02</internalNodes>
      <leafValues>
        5.4199818521738052e-02 -4.4737467169761658e-01</leafValues></_>
    <_>
      <internalNodes>
        0 -1 39337 -7.5784238288179040e-04</internalNodes>
      <leafValues>
        -2.5372990965843201e-01 8.3975300192832947e-02</leafValues></_>
    <_>
      <internalNodes>
        0 -1 28712 4.9886992201209068e-03</internalNodes>
      <leafValues>
        -7.5950771570205688e-02 3.1459996104240417e-01</leafValues></_>
    <_>
      <internalNodes>
        0 -1 1156 2.2051800042390823e-02</internalNodes>
      <leafValues>
        3.7557393312454224e-02 -7.1973997354507446e-01</leafValues></_>
    <_>
      <internalNodes>
        0 -1 3917 -1.1874358169734478e-03</internalNodes>
      <leafValues>
        2.5624161958694458e-01 -9.8810575902462006e-02</leafValues></_>
    <_>
      <internalNodes>
        0 -1 78326 -2.0553126931190491e-02</internalNodes>
      <leafValues>
        -3.0387526750564575e-01 8.7157301604747772e-02</leafValues></_>
    <_>
      <internalNodes>
        0 -1 75090 -8.4544960409402847e-03</internalNodes>
      <leafValues>
        3.0677726864814758e-01 -8.1418447196483612e-02</leafValues></_>
    <_>
      <internalNodes>
        0 -1 2285 2.6456193998456001e-02</internalNodes>
      <leafValues>
        4.3142028152942657e-02 -5.8570265769958496e-01</leafValues></_>
    <_>
      <internalNodes>
        0 -1 39837 9.8236203193664551e-03</internalNodes>
      <leafValues>
        -5.7142086327075958e-02 4.3681880831718445e-01</leafValues></_>
    <_>
      <internalNodes>
        0 -1 74246 -4.0062741027213633e-04</internalNodes>
      <leafValues>
        -2.5429984927177429e-01 9.8461143672466278e-02</leafValues></_>
    <_>
      <internalNodes>
        0 -1 2131 -2.6959180831909180e-03</internalNodes>
      <leafValues>
        2.2902211546897888e-01 -1.0496068000793457e-01</leafValues></_>
    <_>
      <internalNodes>
        0 -1 11735 -1.4738841855432838e-04</internalNodes>
      <leafValues>
        -2.0986185967922211e-01 1.1862770467996597e-01</leafValues></_>
    <_>
      <internalNodes>
        0 -1 78276 5.8283088728785515e-03</internalNodes>
      <leafValues>
        4.4756576418876648e-02 -5.0843977928161621e-01</leafValues></_>
    <_>
      <internalNodes>
        0 -1 78109 -9.9770054221153259e-03</internalNodes>
      <leafValues>
        -7.8065890073776245e-01 2.2904032841324806e-02</leafValues></_>
    <_>
      <internalNodes>
        0 -1 76542 2.8990912251174450e-03</internalNodes>
      <leafValues>
        -1.0363756865262985e-01 2.1507105231285095e-01</leafValues></_>
    <_>
      <internalNodes>
        0 -1 5318 -3.9985678158700466e-03</internalNodes>
      <leafValues>
        3.1682291626930237e-01 -6.9855876266956329e-02</leafValues></_>
    <_>
      <internalNodes>
        0 -1 13610 1.5007836045697331e-03</internalNodes>
      <leafValues>
        6.4849421381950378e-02 -3.8412079215049744e-01</leafValues></_>
    <_>
      <internalNodes>
        0 -1 23952 -3.7520974874496460e-03</internalNodes>
      <leafValues>
        2.0568801462650299e-01 -1.2280637770891190e-01</leafValues></_></weakClassifiers></stage21>
</opencv_storage>
