<?xml version="1.0"?>
<opencv_storage>
<stage18>
  <maxWeakCount>54</maxWeakCount>
  <stageThreshold>-6.5913581848144531e-01</stageThreshold>
  <weakClassifiers>
    <_>
      <internalNodes>
        0 -1 21821 3.1551457941532135e-03</internalNodes>
      <leafValues>
        1.8234913051128387e-01 7.3728030920028687e-01</leafValues></_>
    <_>
      <internalNodes>
        0 -1 76937 -2.9886974953114986e-03</internalNodes>
      <leafValues>
        4.2774233222007751e-01 -1.2572576105594635e-01</leafValues></_>
    <_>
      <internalNodes>
        0 -1 3358 9.4589069485664368e-03</internalNodes>
      <leafValues>
        -1.2798853218555450e-01 3.8216039538383484e-01</leafValues></_>
    <_>
      <internalNodes>
        0 -1 65151 -2.5311349891126156e-03</internalNodes>
      <leafValues>
        1.2192275375127792e-01 -2.3962099850177765e-01</leafValues></_>
    <_>
      <internalNodes>
        0 -1 4103 4.9104182980954647e-03</internalNodes>
      <leafValues>
        7.1374751627445221e-02 -4.3629652261734009e-01</leafValues></_>
    <_>
      <internalNodes>
        0 -1 8979 2.3845992982387543e-03</internalNodes>
      <leafValues>
        -1.0373643040657043e-01 3.1343033909797668e-01</leafValues></_>
    <_>
      <internalNodes>
        0 -1 205 -2.9824960976839066e-02</internalNodes>
      <leafValues>
        -5.0941449403762817e-01 5.3420048207044601e-02</leafValues></_>
    <_>
      <internalNodes>
        0 -1 38536 5.0429128110408783e-02</internalNodes>
      <leafValues>
        5.3236812353134155e-02 -5.8314985036849976e-01</leafValues></_>
    <_>
      <internalNodes>
        0 -1 78342 -2.5932375341653824e-02</internalNodes>
      <leafValues>
        -3.1804758310317993e-01 1.0034199804067612e-01</leafValues></_>
    <_>
      <internalNodes>
        0 -1 69063 7.7786192297935486e-02</internalNodes>
      <leafValues>
        3.7401750683784485e-02 -7.9199779033660889e-01</leafValues></_>
    <_>
      <internalNodes>
        0 -1 28658 7.6157785952091217e-03</internalNodes>
      <leafValues>
        3.8279678672552109e-02 -6.4552146196365356e-01</leafValues></_>
    <_>
      <internalNodes>
        0 -1 66241 1.8040264258161187e-03</internalNodes>
      <leafValues>
        -1.6767506301403046e-01 1.7752557992935181e-01</leafValues></_>
    <_>
      <internalNodes>
        0 -1 6078 5.1855607889592648e-03</internalNodes>
      <leafValues>
        -7.6253652572631836e-02 4.1804623603820801e-01</leafValues></_>
    <_>
      <internalNodes>
        0 -1 78013 -1.3361172750592232e-02</internalNodes>
      <leafValues>
        3.4918171167373657e-01 -8.5044845938682556e-02</leafValues></_>
    <_>
      <internalNodes>
        0 -1 740 3.3004267606884241e-04</internalNodes>
      <leafValues>
        1.2783047556877136e-01 -2.7078837156295776e-01</leafValues></_>
    <_>
      <internalNodes>
        0 -1 77920 7.7650193125009537e-03</internalNodes>
      <leafValues>
        -7.7816911041736603e-02 3.9685791730880737e-01</leafValues></_>
    <_>
      <internalNodes>
        0 -1 39373 -9.3287456547841430e-04</internalNodes>
      <leafValues>
        -2.4739120900630951e-01 1.1805141717195511e-01</leafValues></_>
    <_>
      <internalNodes>
        0 -1 54728 2.6482425630092621e-02</internalNodes>
      <leafValues>
        4.9447633326053619e-02 -5.3751784563064575e-01</leafValues></_>
    <_>
      <internalNodes>
        0 -1 76350 -6.3837913330644369e-05</internalNodes>
      <leafValues>
        1.1950005590915680e-01 -2.0283810794353485e-01</leafValues></_>
    <_>
      <internalNodes>
        0 -1 74812 2.3311423137784004e-03</internalNodes>
      <leafValues>
        6.9212496280670166e-02 -3.7460088729858398e-01</leafValues></_>
    <_>
      <internalNodes>
        0 -1 11287 3.0832455959171057e-03</internalNodes>
      <leafValues>
        -1.1072096228599548e-01 2.2880756855010986e-01</leafValues></_>
    <_>
      <internalNodes>
        0 -1 69603 -1.7267798539251089e-03</internalNodes>
      <leafValues>
        2.2808079421520233e-01 -1.1824884265661240e-01</leafValues></_>
    <_>
      <internalNodes>
        0 -1 78381 6.4921347075141966e-05</internalNodes>
      <leafValues>
        -1.5126389265060425e-01 2.0460031926631927e-01</leafValues></_>
    <_>
      <internalNodes>
        0 -1 78312 4.0709488093852997e-03</internalNodes>
      <leafValues>
        1.0393563657999039e-01 -2.5813692808151245e-01</leafValues></_>
    <_>
      <internalNodes>
        0 -1 77339 -2.6013253256678581e-02</internalNodes>
      <leafValues>
        -9.1024065017700195e-01 3.2856360077857971e-02</leafValues></_>
    <_>
      <internalNodes>
        0 -1 76941 -4.1483938694000244e-03</internalNodes>
      <leafValues>
        5.1905596256256104e-01 -6.2088076025247574e-02</leafValues></_>
    <_>
      <internalNodes>
        0 -1 14776 2.4210361298173666e-03</internalNodes>
      <leafValues>
        -9.4957239925861359e-02 2.5735533237457275e-01</leafValues></_>
    <_>
      <internalNodes>
        0 -1 1121 9.2425450682640076e-02</internalNodes>
      <leafValues>
        3.6560598760843277e-02 -6.7366456985473633e-01</leafValues></_>
    <_>
      <internalNodes>
        0 -1 740 -8.6792936781421304e-04</internalNodes>
      <leafValues>
        -3.7074172496795654e-01 6.9186061620712280e-02</leafValues></_>
    <_>
      <internalNodes>
        0 -1 59588 3.5615369677543640e-02</internalNodes>
      <leafValues>
        -7.9081408679485321e-02 3.5857281088829041e-01</leafValues></_>
    <_>
      <internalNodes>
        0 -1 35005 4.4345408678054810e-02</internalNodes>
      <leafValues>
        -1.2906047701835632e-01 1.9878554344177246e-01</leafValues></_>
    <_>
      <internalNodes>
        0 -1 31626 -6.4809617470018566e-05</internalNodes>
      <leafValues>
        1.2929339706897736e-01 -2.1776971220970154e-01</leafValues></_>
    <_>
      <internalNodes>
        0 -1 56057 -1.6444446519017220e-03</internalNodes>
      <leafValues>
        -3.2212659716606140e-01 7.6714389026165009e-02</leafValues></_>
    <_>
      <internalNodes>
        0 -1 7321 5.3341691382229328e-03</internalNodes>
      <leafValues>
        -6.9883741438388824e-02 3.4672060608863831e-01</leafValues></_>
    <_>
      <internalNodes>
        0 -1 11823 2.2068046964704990e-03</internalNodes>
      <leafValues>
        -1.4089667797088623e-01 1.7425923049449921e-01</leafValues></_>
    <_>
      <internalNodes>
        0 -1 3989 1.0306424461305141e-02</internalNodes>
      <leafValues>
        -1.2538789212703705e-01 2.8828197717666626e-01</leafValues></_>
    <_>
      <internalNodes>
        0 -1 77781 -7.1929849218577147e-04</internalNodes>
      <leafValues>
        -3.1376358866691589e-01 7.5983472168445587e-02</leafValues></_>
    <_>
      <internalNodes>
        0 -1 21683 -6.0050226747989655e-03</internalNodes>
      <leafValues>
        -7.6855564117431641e-01 3.0658511444926262e-02</leafValues></_>
    <_>
      <internalNodes>
        0 -1 41633 8.7580040097236633e-02</internalNodes>
      <leafValues>
        3.7419606000185013e-02 -5.2399772405624390e-01</leafValues></_>
    <_>
      <internalNodes>
        0 -1 11144 -2.4197677150368690e-02</internalNodes>
      <leafValues>
        2.8917461633682251e-01 -9.1640993952751160e-02</leafValues></_>
    <_>
      <internalNodes>
        0 -1 430 -4.0128368139266968e-01</internalNodes>
      <leafValues>
        -8.6296135187149048e-01 3.6624263972043991e-02</leafValues></_>
    <_>
      <internalNodes>
        0 -1 55970 3.9586839266121387e-03</internalNodes>
      <leafValues>
        -1.7022232711315155e-01 1.4645427465438843e-01</leafValues></_>
    <_>
      <internalNodes>
        0 -1 68229 -4.8151111695915461e-04</internalNodes>
      <leafValues>
        -2.7879640460014343e-01 8.8985420763492584e-02</leafValues></_>
    <_>
      <internalNodes>
        0 -1 73531 -4.8847505822777748e-03</internalNodes>
      <leafValues>
        4.6423515677452087e-01 -5.1233515143394470e-02</leafValues></_>
    <_>
      <internalNodes>
        0 -1 65809 2.1526096388697624e-03</internalNodes>
      <leafValues>
        -1.2802468240261078e-01 2.0252297818660736e-01</leafValues></_>
    <_>
      <internalNodes>
        0 -1 23842 -3.0040746927261353e-01</internalNodes>
      <leafValues>
        7.1663373708724976e-01 -3.5901270806789398e-02</leafValues></_>
    <_>
      <internalNodes>
        0 -1 13800 1.0759342461824417e-02</internalNodes>
      <leafValues>
        -1.0956195741891861e-01 2.2676181793212891e-01</leafValues></_>
    <_>
      <internalNodes>
        0 -1 77635 7.9556040873285383e-05</internalNodes>
      <leafValues>
        -1.3376842439174652e-01 1.6832211613655090e-01</leafValues></_>
    <_>
      <internalNodes>
        0 -1 27035 1.0104135144501925e-03</internalNodes>
      <leafValues>
        5.7979457080364227e-02 -4.3527114391326904e-01</leafValues></_>
    <_>
      <internalNodes>
        0 -1 78113 -2.1947775967419147e-03</internalNodes>
      <leafValues>
        2.5294351577758789e-01 -9.6532188355922699e-02</leafValues></_>
    <_>
      <internalNodes>
        0 -1 73380 1.3487637042999268e-03</internalNodes>
      <leafValues>
        5.9652999043464661e-02 -4.2786574363708496e-01</leafValues></_>
    <_>
      <internalNodes>
        0 -1 9305 -1.6258766409009695e-03</internalNodes>
      <leafValues>
        2.0460861921310425e-01 -1.2291058152914047e-01</leafValues></_>
    <_>
      <internalNodes>
        0 -1 68127 -1.6690214397385716e-03</internalNodes>
      <leafValues>
        2.3835384845733643e-01 -1.1835114657878876e-01</leafValues></_>
    <_>
      <internalNodes>
        0 -1 66337 -2.8666169382631779e-03</internalNodes>
      <leafValues>
        -2.6132616400718689e-01 9.4069056212902069e-02</leafValues></_></weakClassifiers></stage18>
</opencv_storage>
