<?xml version="1.0"?>
<opencv_storage>
<stage13>
  <maxWeakCount>45</maxWeakCount>
  <stageThreshold>-7.0970404148101807e-01</stageThreshold>
  <weakClassifiers>
    <_>
      <internalNodes>
        0 -1 16141 4.0220851078629494e-03</internalNodes>
      <leafValues>
        1.2491077929735184e-01 7.3955774307250977e-01</leafValues></_>
    <_>
      <internalNodes>
        0 -1 77013 -1.6987333074212074e-03</internalNodes>
      <leafValues>
        5.1283299922943115e-01 -1.3257490098476410e-01</leafValues></_>
    <_>
      <internalNodes>
        0 -1 10179 -1.0233307257294655e-03</internalNodes>
      <leafValues>
        4.2985513806343079e-01 -1.1765537410974503e-01</leafValues></_>
    <_>
      <internalNodes>
        0 -1 15509 -5.8340764371678233e-04</internalNodes>
      <leafValues>
        2.1289761364459991e-01 -2.1360747516155243e-01</leafValues></_>
    <_>
      <internalNodes>
        0 -1 62299 8.2163196057081223e-03</internalNodes>
      <leafValues>
        -1.4036148786544800e-01 2.9245126247406006e-01</leafValues></_>
    <_>
      <internalNodes>
        0 -1 62079 7.5446246191859245e-03</internalNodes>
      <leafValues>
        7.6991349458694458e-02 -5.4954165220260620e-01</leafValues></_>
    <_>
      <internalNodes>
        0 -1 14863 3.6606460809707642e-02</internalNodes>
      <leafValues>
        4.9913119524717331e-02 -5.9060394763946533e-01</leafValues></_>
    <_>
      <internalNodes>
        0 -1 58967 2.3350669071078300e-03</internalNodes>
      <leafValues>
        4.8773702234029770e-02 -7.1543169021606445e-01</leafValues></_>
    <_>
      <internalNodes>
        0 -1 21892 5.7719033211469650e-03</internalNodes>
      <leafValues>
        -1.2283954024314880e-01 3.2524788379669189e-01</leafValues></_>
    <_>
      <internalNodes>
        0 -1 6914 1.5758185181766748e-03</internalNodes>
      <leafValues>
        -7.4815347790718079e-02 4.1466850042343140e-01</leafValues></_>
    <_>
      <internalNodes>
        0 -1 9000 -4.5122433453798294e-02</internalNodes>
      <leafValues>
        -7.4341070652008057e-01 3.8306348025798798e-02</leafValues></_>
    <_>
      <internalNodes>
        0 -1 67844 2.8391759842634201e-03</internalNodes>
      <leafValues>
        5.8921031653881073e-02 -5.3607589006423950e-01</leafValues></_>
    <_>
      <internalNodes>
        0 -1 29810 7.8558633103966713e-03</internalNodes>
      <leafValues>
        4.4986099004745483e-02 -7.5113040208816528e-01</leafValues></_>
    <_>
      <internalNodes>
        0 -1 5329 -3.2697266433387995e-03</internalNodes>
      <leafValues>
        3.2874509692192078e-01 -1.1398664861917496e-01</leafValues></_>
    <_>
      <internalNodes>
        0 -1 62716 2.6657753624022007e-03</internalNodes>
      <leafValues>
        -2.2569821774959564e-01 1.6410329937934875e-01</leafValues></_>
    <_>
      <internalNodes>
        0 -1 58952 5.7196341454982758e-02</internalNodes>
      <leafValues>
        6.2151934951543808e-02 -5.4274231195449829e-01</leafValues></_>
    <_>
      <internalNodes>
        0 -1 34629 8.0935508012771606e-03</internalNodes>
      <leafValues>
        -1.2867264449596405e-01 2.6103559136390686e-01</leafValues></_>
    <_>
      <internalNodes>
        0 -1 1400 3.5865390300750732e-01</internalNodes>
      <leafValues>
        -9.0196013450622559e-02 3.8359218835830688e-01</leafValues></_>
    <_>
      <internalNodes>
        0 -1 41343 -5.2900770679116249e-03</internalNodes>
      <leafValues>
        1.9194397330284119e-01 -1.7577096819877625e-01</leafValues></_>
    <_>
      <internalNodes>
        0 -1 75644 1.3170653954148293e-02</internalNodes>
      <leafValues>
        -5.9439182281494141e-02 6.0667365789413452e-01</leafValues></_>
    <_>
      <internalNodes>
        0 -1 21132 3.2693645916879177e-03</internalNodes>
      <leafValues>
        -8.7319076061248779e-02 3.3609780669212341e-01</leafValues></_>
    <_>
      <internalNodes>
        0 -1 6983 -5.1798783242702484e-03</internalNodes>
      <leafValues>
        2.5694131851196289e-01 -1.3260947167873383e-01</leafValues></_>
    <_>
      <internalNodes>
        0 -1 44876 -2.9341820627450943e-03</internalNodes>
      <leafValues>
        -3.3826345205307007e-01 9.5341168344020844e-02</leafValues></_>
    <_>
      <internalNodes>
        0 -1 23880 3.3141487836837769e-01</internalNodes>
      <leafValues>
        -4.6166855841875076e-02 6.8543529510498047e-01</leafValues></_>
    <_>
      <internalNodes>
        0 -1 62405 -1.1296839511487633e-04</internalNodes>
      <leafValues>
        1.7897360026836395e-01 -1.6624665260314941e-01</leafValues></_>
    <_>
      <internalNodes>
        0 -1 8108 -7.6997685246169567e-03</internalNodes>
      <leafValues>
        -2.8593823313713074e-01 1.2146160006523132e-01</leafValues></_>
    <_>
      <internalNodes>
        0 -1 77603 -1.9353935495018959e-03</internalNodes>
      <leafValues>
        3.4238296747207642e-01 -7.9663291573524475e-02</leafValues></_>
    <_>
      <internalNodes>
        0 -1 77545 9.5887528732419014e-04</internalNodes>
      <leafValues>
        -1.2675714492797852e-01 2.5160297751426697e-01</leafValues></_>
    <_>
      <internalNodes>
        0 -1 74887 1.6160849481821060e-02</internalNodes>
      <leafValues>
        5.6662864983081818e-02 -5.8712035417556763e-01</leafValues></_>
    <_>
      <internalNodes>
        0 -1 25665 1.6383785009384155e-01</internalNodes>
      <leafValues>
        -4.2505968362092972e-02 7.9177439212799072e-01</leafValues></_>
    <_>
      <internalNodes>
        0 -1 27292 -8.6326901509892195e-05</internalNodes>
      <leafValues>
        1.5871678292751312e-01 -2.3624047636985779e-01</leafValues></_>
    <_>
      <internalNodes>
        0 -1 34146 -6.2436182051897049e-03</internalNodes>
      <leafValues>
        4.2529943585395813e-01 -6.4990505576133728e-02</leafValues></_>
    <_>
      <internalNodes>
        0 -1 14492 -2.5817643851041794e-02</internalNodes>
      <leafValues>
        -6.5851587057113647e-01 4.5321576297283173e-02</leafValues></_>
    <_>
      <internalNodes>
        0 -1 44788 1.2411511503160000e-02</internalNodes>
      <leafValues>
        -9.3052625656127930e-02 3.3558702468872070e-01</leafValues></_>
    <_>
      <internalNodes>
        0 -1 53899 6.5849041566252708e-03</internalNodes>
      <leafValues>
        6.8124271929264069e-02 -4.6708810329437256e-01</leafValues></_>
    <_>
      <internalNodes>
        0 -1 7606 2.0583581645041704e-03</internalNodes>
      <leafValues>
        8.2056455314159393e-02 -3.2754337787628174e-01</leafValues></_>
    <_>
      <internalNodes>
        0 -1 69083 6.7613441497087479e-03</internalNodes>
      <leafValues>
        -1.3724763691425323e-01 1.8690736591815948e-01</leafValues></_>
    <_>
      <internalNodes>
        0 -1 40714 -3.7073247134685516e-02</internalNodes>
      <leafValues>
        4.1129240393638611e-01 -8.3139277994632721e-02</leafValues></_>
    <_>
      <internalNodes>
        0 -1 63760 1.0839985683560371e-02</internalNodes>
      <leafValues>
        4.7029498964548111e-02 -7.7106243371963501e-01</leafValues></_>
    <_>
      <internalNodes>
        0 -1 76653 3.6022212589159608e-04</internalNodes>
      <leafValues>
        1.0526766628026962e-01 -2.6572954654693604e-01</leafValues></_>
    <_>
      <internalNodes>
        0 -1 71993 1.8405532464385033e-03</internalNodes>
      <leafValues>
        -1.9917185604572296e-01 1.5526658296585083e-01</leafValues></_>
    <_>
      <internalNodes>
        0 -1 35752 -9.4464831054210663e-02</internalNodes>
      <leafValues>
        3.7901854515075684e-01 -8.1400357186794281e-02</leafValues></_>
    <_>
      <internalNodes>
        0 -1 66792 2.6723176240921021e-02</internalNodes>
      <leafValues>
        8.6614906787872314e-02 -3.8698193430900574e-01</leafValues></_>
    <_>
      <internalNodes>
        0 -1 77954 1.4652372337877750e-03</internalNodes>
      <leafValues>
        -1.4076904952526093e-01 2.0050993561744690e-01</leafValues></_>
    <_>
      <internalNodes>
        0 -1 18997 -3.7853969843126833e-04</internalNodes>
      <leafValues>
        -2.3052908480167389e-01 1.3041552901268005e-01</leafValues></_></weakClassifiers></stage13>
</opencv_storage>
