<?xml version="1.0"?>
<opencv_storage>
<stage17>
  <maxWeakCount>58</maxWeakCount>
  <stageThreshold>-7.3283690214157104e-01</stageThreshold>
  <weakClassifiers>
    <_>
      <internalNodes>
        0 -1 73690 -1.2929701479151845e-03</internalNodes>
      <leafValues>
        6.4958447217941284e-01 1.1884550005197525e-01</leafValues></_>
    <_>
      <internalNodes>
        0 -1 9656 5.1978556439280510e-03</internalNodes>
      <leafValues>
        -1.4925049245357513e-01 4.4977813959121704e-01</leafValues></_>
    <_>
      <internalNodes>
        0 -1 77951 -7.1804807521402836e-03</internalNodes>
      <leafValues>
        3.8610592484474182e-01 -1.2113102525472641e-01</leafValues></_>
    <_>
      <internalNodes>
        0 -1 45347 5.9986072592437267e-03</internalNodes>
      <leafValues>
        8.5690818727016449e-02 -3.2332083582878113e-01</leafValues></_>
    <_>
      <internalNodes>
        0 -1 62093 -4.3994575389660895e-04</internalNodes>
      <leafValues>
        1.7297497391700745e-01 -1.9865724444389343e-01</leafValues></_>
    <_>
      <internalNodes>
        0 -1 14615 -2.0930287428200245e-03</internalNodes>
      <leafValues>
        3.1989523768424988e-01 -9.5174014568328857e-02</leafValues></_>
    <_>
      <internalNodes>
        0 -1 14817 1.9792677834630013e-02</internalNodes>
      <leafValues>
        4.5139633119106293e-02 -7.0107746124267578e-01</leafValues></_>
    <_>
      <internalNodes>
        0 -1 1435 -1.4453959884122014e-03</internalNodes>
      <leafValues>
        -4.9619805812835693e-01 5.1795735955238342e-02</leafValues></_>
    <_>
      <internalNodes>
        0 -1 77927 3.0292265582829714e-03</internalNodes>
      <leafValues>
        7.1366511285305023e-02 -4.2863589525222778e-01</leafValues></_>
    <_>
      <internalNodes>
        0 -1 69014 4.4959783554077148e-03</internalNodes>
      <leafValues>
        -7.7308647334575653e-02 4.0660643577575684e-01</leafValues></_>
    <_>
      <internalNodes>
        0 -1 66623 -1.9662787672132254e-03</internalNodes>
      <leafValues>
        -4.4514286518096924e-01 7.4798703193664551e-02</leafValues></_>
    <_>
      <internalNodes>
        0 -1 65809 -2.7778837829828262e-03</internalNodes>
      <leafValues>
        5.0907576084136963e-01 -6.5484434366226196e-02</leafValues></_>
    <_>
      <internalNodes>
        0 -1 74673 -4.1932453314075246e-05</internalNodes>
      <leafValues>
        1.5109229087829590e-01 -2.0880837738513947e-01</leafValues></_>
    <_>
      <internalNodes>
        0 -1 14134 -4.4009708799421787e-03</internalNodes>
      <leafValues>
        2.9985415935516357e-01 -9.7919858992099762e-02</leafValues></_>
    <_>
      <internalNodes>
        0 -1 580 -1.2842411524616182e-04</internalNodes>
      <leafValues>
        -2.4219824373722076e-01 1.2595577538013458e-01</leafValues></_>
    <_>
      <internalNodes>
        0 -1 27034 1.3951736036688089e-03</internalNodes>
      <leafValues>
        6.1605881899595261e-02 -4.2651218175888062e-01</leafValues></_>
    <_>
      <internalNodes>
        0 -1 74747 -5.0339121371507645e-03</internalNodes>
      <leafValues>
        -3.9724946022033691e-01 6.1208780854940414e-02</leafValues></_>
    <_>
      <internalNodes>
        0 -1 77202 -5.4507739841938019e-03</internalNodes>
      <leafValues>
        2.8785949945449829e-01 -9.2882633209228516e-02</leafValues></_>
    <_>
      <internalNodes>
        0 -1 4514 -9.3109568115323782e-04</internalNodes>
      <leafValues>
        1.9722856581211090e-01 -1.2794663012027740e-01</leafValues></_>
    <_>
      <internalNodes>
        0 -1 802 1.6900992486625910e-03</internalNodes>
      <leafValues>
        1.0583697259426117e-01 -2.6375475525856018e-01</leafValues></_>
    <_>
      <internalNodes>
        0 -1 75489 1.3205055147409439e-02</internalNodes>
      <leafValues>
        4.9575626850128174e-02 -5.6278073787689209e-01</leafValues></_>
    <_>
      <internalNodes>
        0 -1 71746 1.9306825473904610e-02</internalNodes>
      <leafValues>
        -1.1389575898647308e-01 2.2736424207687378e-01</leafValues></_>
    <_>
      <internalNodes>
        0 -1 63604 -9.9263084121048450e-04</internalNodes>
      <leafValues>
        1.7263342440128326e-01 -1.5831436216831207e-01</leafValues></_>
    <_>
      <internalNodes>
        0 -1 32245 -7.0174393476918340e-04</internalNodes>
      <leafValues>
        -2.1660394966602325e-01 1.3438081741333008e-01</leafValues></_>
    <_>
      <internalNodes>
        0 -1 13887 -3.1562722288072109e-03</internalNodes>
      <leafValues>
        3.8880604505538940e-01 -6.5380126237869263e-02</leafValues></_>
    <_>
      <internalNodes>
        0 -1 20894 9.5197383780032396e-04</internalNodes>
      <leafValues>
        -1.1351938545703888e-01 2.5327625870704651e-01</leafValues></_>
    <_>
      <internalNodes>
        0 -1 50355 4.5947218313813210e-03</internalNodes>
      <leafValues>
        -1.3713544607162476e-01 2.0435288548469543e-01</leafValues></_>
    <_>
      <internalNodes>
        0 -1 64240 -1.9766090554185212e-04</internalNodes>
      <leafValues>
        -2.0229731500148773e-01 1.3435089588165283e-01</leafValues></_>
    <_>
      <internalNodes>
        0 -1 14148 7.4347588233649731e-03</internalNodes>
      <leafValues>
        4.5625489205121994e-02 -6.1504596471786499e-01</leafValues></_>
    <_>
      <internalNodes>
        0 -1 34660 -4.0507344529032707e-03</internalNodes>
      <leafValues>
        3.3574727177619934e-01 -8.4324471652507782e-02</leafValues></_>
    <_>
      <internalNodes>
        0 -1 58595 -4.7714238462503999e-05</internalNodes>
      <leafValues>
        1.6298186779022217e-01 -1.5456005930900574e-01</leafValues></_>
    <_>
      <internalNodes>
        0 -1 73504 1.3182044494897127e-03</internalNodes>
      <leafValues>
        -6.5074697136878967e-02 4.1016313433647156e-01</leafValues></_>
    <_>
      <internalNodes>
        0 -1 1439 -2.1255062893033028e-03</internalNodes>
      <leafValues>
        -3.9546841382980347e-01 6.9210775196552277e-02</leafValues></_>
    <_>
      <internalNodes>
        0 -1 69974 4.5503809815272689e-05</internalNodes>
      <leafValues>
        -1.5179553627967834e-01 1.6533809900283813e-01</leafValues></_>
    <_>
      <internalNodes>
        0 -1 72212 -2.1213201762293465e-05</internalNodes>
      <leafValues>
        1.5648955106735229e-01 -2.0750997960567474e-01</leafValues></_>
    <_>
      <internalNodes>
        0 -1 34636 5.2685119211673737e-02</internalNodes>
      <leafValues>
        -9.7192466259002686e-02 3.2887601852416992e-01</leafValues></_>
    <_>
      <internalNodes>
        0 -1 55737 7.6622529886662960e-03</internalNodes>
      <leafValues>
        7.7112510800361633e-02 -4.2232191562652588e-01</leafValues></_>
    <_>
      <internalNodes>
        0 -1 73407 -3.2192397862672806e-02</internalNodes>
      <leafValues>
        -6.2358963489532471e-01 3.5965688526630402e-02</leafValues></_>
    <_>
      <internalNodes>
        0 -1 13393 2.4758443236351013e-02</internalNodes>
      <leafValues>
        2.3352731019258499e-02 -7.8932309150695801e-01</leafValues></_>
    <_>
      <internalNodes>
        0 -1 19050 1.6949545592069626e-02</internalNodes>
      <leafValues>
        -1.3578753173351288e-01 1.7944180965423584e-01</leafValues></_>
    <_>
      <internalNodes>
        0 -1 32161 -1.3335100375115871e-03</internalNodes>
      <leafValues>
        1.8672868609428406e-01 -1.8396449089050293e-01</leafValues></_>
    <_>
      <internalNodes>
        0 -1 5327 -7.4809673242270947e-03</internalNodes>
      <leafValues>
        4.1920375823974609e-01 -6.5071314573287964e-02</leafValues></_>
    <_>
      <internalNodes>
        0 -1 7444 -2.8244554996490479e-03</internalNodes>
      <leafValues>
        -7.3768502473831177e-01 4.3957538902759552e-02</leafValues></_>
    <_>
      <internalNodes>
        0 -1 20882 -2.6439442299306393e-03</internalNodes>
      <leafValues>
        -7.1542739868164062e-01 2.7985649183392525e-02</leafValues></_>
    <_>
      <internalNodes>
        0 -1 6681 -2.1775113418698311e-03</internalNodes>
      <leafValues>
        3.2047420740127563e-01 -9.1301433742046356e-02</leafValues></_>
    <_>
      <internalNodes>
        0 -1 77727 -9.7209750674664974e-04</internalNodes>
      <leafValues>
        -2.8930234909057617e-01 9.0102359652519226e-02</leafValues></_>
    <_>
      <internalNodes>
        0 -1 14833 -6.4718197099864483e-03</internalNodes>
      <leafValues>
        -6.1379390954971313e-01 4.1478671133518219e-02</leafValues></_>
    <_>
      <internalNodes>
        0 -1 36519 1.3091101311147213e-02</internalNodes>
      <leafValues>
        3.1995635479688644e-02 -6.8602031469345093e-01</leafValues></_>
    <_>
      <internalNodes>
        0 -1 62030 1.4578248374164104e-03</internalNodes>
      <leafValues>
        -1.4739847183227539e-01 1.7350585758686066e-01</leafValues></_>
    <_>
      <internalNodes>
        0 -1 60583 6.3611910445615649e-04</internalNodes>
      <leafValues>
        -1.4670337736606598e-01 1.7413142323493958e-01</leafValues></_>
    <_>
      <internalNodes>
        0 -1 58761 -7.1097582578659058e-02</internalNodes>
      <leafValues>
        -7.4331754446029663e-01 3.3980838954448700e-02</leafValues></_>
    <_>
      <internalNodes>
        0 -1 7403 -1.1633831262588501e-01</internalNodes>
      <leafValues>
        -6.7571318149566650e-01 3.0564256012439728e-02</leafValues></_>
    <_>
      <internalNodes>
        0 -1 47964 1.7807324184104800e-04</internalNodes>
      <leafValues>
        -1.5599675476551056e-01 1.5398921072483063e-01</leafValues></_>
    <_>
      <internalNodes>
        0 -1 48783 -7.0624653017148376e-04</internalNodes>
      <leafValues>
        -2.6172506809234619e-01 9.5172755420207977e-02</leafValues></_>
    <_>
      <internalNodes>
        0 -1 597 8.2009285688400269e-03</internalNodes>
      <leafValues>
        -1.0541491955518723e-01 2.4094863235950470e-01</leafValues></_>
    <_>
      <internalNodes>
        0 -1 63004 1.7632748931646347e-02</internalNodes>
      <leafValues>
        4.2642947286367416e-02 -5.6128126382827759e-01</leafValues></_>
    <_>
      <internalNodes>
        0 -1 16120 -3.7364918738603592e-02</internalNodes>
      <leafValues>
        -3.4571054577827454e-01 6.8527698516845703e-02</leafValues></_>
    <_>
      <internalNodes>
        0 -1 19715 -3.8118787109851837e-02</internalNodes>
      <leafValues>
        -6.6414421796798706e-01 3.4387689083814621e-02</leafValues></_></weakClassifiers></stage17>
</opencv_storage>
