<?xml version="1.0"?>
<opencv_storage>
<stage12>
  <maxWeakCount>41</maxWeakCount>
  <stageThreshold>-7.7870845794677734e-01</stageThreshold>
  <weakClassifiers>
    <_>
      <internalNodes>
        0 -1 7695 5.1804650574922562e-03</internalNodes>
      <leafValues>
        1.1692084372043610e-01 7.3654615879058838e-01</leafValues></_>
    <_>
      <internalNodes>
        0 -1 77939 -1.3031754642724991e-03</internalNodes>
      <leafValues>
        5.5749118328094482e-01 -1.6432577371597290e-01</leafValues></_>
    <_>
      <internalNodes>
        0 -1 69010 -3.6741695366799831e-03</internalNodes>
      <leafValues>
        3.7963274121284485e-01 -1.4963448047637939e-01</leafValues></_>
    <_>
      <internalNodes>
        0 -1 6670 -6.5956175327301025e-02</internalNodes>
      <leafValues>
        2.8783500194549561e-01 -1.5092854201793671e-01</leafValues></_>
    <_>
      <internalNodes>
        0 -1 73902 -4.1509931907057762e-03</internalNodes>
      <leafValues>
        3.4943222999572754e-01 -1.7690585553646088e-01</leafValues></_>
    <_>
      <internalNodes>
        0 -1 68621 1.0241562500596046e-02</internalNodes>
      <leafValues>
        -1.1303220689296722e-01 3.6385560035705566e-01</leafValues></_>
    <_>
      <internalNodes>
        0 -1 45617 -3.3795507624745369e-04</internalNodes>
      <leafValues>
        -3.4463503956794739e-01 1.1348175257444382e-01</leafValues></_>
    <_>
      <internalNodes>
        0 -1 75090 -7.9216798767447472e-03</internalNodes>
      <leafValues>
        3.9076915383338928e-01 -1.0324651747941971e-01</leafValues></_>
    <_>
      <internalNodes>
        0 -1 46781 -5.6897681206464767e-03</internalNodes>
      <leafValues>
        2.1302063763141632e-01 -2.0108029246330261e-01</leafValues></_>
    <_>
      <internalNodes>
        0 -1 1518 8.2274340093135834e-03</internalNodes>
      <leafValues>
        -1.1900233477354050e-01 3.4319671988487244e-01</leafValues></_>
    <_>
      <internalNodes>
        0 -1 77723 -7.4954441515728831e-04</internalNodes>
      <leafValues>
        -3.9037168025970459e-01 1.1400441825389862e-01</leafValues></_>
    <_>
      <internalNodes>
        0 -1 3905 7.1624154224991798e-03</internalNodes>
      <leafValues>
        -1.1927978694438934e-01 3.3800882101058960e-01</leafValues></_>
    <_>
      <internalNodes>
        0 -1 77723 6.8492710124701262e-04</internalNodes>
      <leafValues>
        9.5259122550487518e-02 -3.9879134297370911e-01</leafValues></_>
    <_>
      <internalNodes>
        0 -1 3407 -1.2743642553687096e-02</internalNodes>
      <leafValues>
        3.3228683471679688e-01 -1.0940386354923248e-01</leafValues></_>
    <_>
      <internalNodes>
        0 -1 40167 4.2784595862030983e-03</internalNodes>
      <leafValues>
        -1.4332821965217590e-01 2.4329234659671783e-01</leafValues></_>
    <_>
      <internalNodes>
        0 -1 17068 -3.4695816040039062e-01</internalNodes>
      <leafValues>
        7.2869050502777100e-01 -5.1870658993721008e-02</leafValues></_>
    <_>
      <internalNodes>
        0 -1 52003 -2.5749909691512585e-03</internalNodes>
      <leafValues>
        -6.2388253211975098e-01 6.5644323825836182e-02</leafValues></_>
    <_>
      <internalNodes>
        0 -1 11647 3.0439095571637154e-03</internalNodes>
      <leafValues>
        -1.7016386985778809e-01 2.0120880007743835e-01</leafValues></_>
    <_>
      <internalNodes>
        0 -1 9624 -4.6336976811289787e-03</internalNodes>
      <leafValues>
        2.5509026646614075e-01 -1.2568554282188416e-01</leafValues></_>
    <_>
      <internalNodes>
        0 -1 76278 -1.9279108528280631e-05</internalNodes>
      <leafValues>
        1.4499187469482422e-01 -2.1750022470951080e-01</leafValues></_>
    <_>
      <internalNodes>
        0 -1 43476 2.4311292916536331e-02</internalNodes>
      <leafValues>
        -1.4738483726978302e-01 2.3525649309158325e-01</leafValues></_>
    <_>
      <internalNodes>
        0 -1 65352 2.4897484108805656e-03</internalNodes>
      <leafValues>
        7.4676640331745148e-02 -4.5148965716362000e-01</leafValues></_>
    <_>
      <internalNodes>
        0 -1 8848 1.2588227167725563e-02</internalNodes>
      <leafValues>
        -1.5094456076622009e-01 2.0049069821834564e-01</leafValues></_>
    <_>
      <internalNodes>
        0 -1 22643 -2.9677009209990501e-02</internalNodes>
      <leafValues>
        3.4923887252807617e-01 -9.6069462597370148e-02</leafValues></_>
    <_>
      <internalNodes>
        0 -1 17861 -1.8395087681710720e-03</internalNodes>
      <leafValues>
        -4.4249764084815979e-01 7.7982835471630096e-02</leafValues></_>
    <_>
      <internalNodes>
        0 -1 77722 -6.9121792912483215e-02</internalNodes>
      <leafValues>
        -3.6452934145927429e-01 1.0118154436349869e-01</leafValues></_>
    <_>
      <internalNodes>
        0 -1 65754 3.0011222697794437e-03</internalNodes>
      <leafValues>
        7.0776909589767456e-02 -4.7624796628952026e-01</leafValues></_>
    <_>
      <internalNodes>
        0 -1 78203 -3.9753904566168785e-03</internalNodes>
      <leafValues>
        4.1274523735046387e-01 -8.0630794167518616e-02</leafValues></_>
    <_>
      <internalNodes>
        0 -1 58506 9.8957167938351631e-04</internalNodes>
      <leafValues>
        8.7511107325553894e-02 -3.8938149809837341e-01</leafValues></_>
    <_>
      <internalNodes>
        0 -1 72266 -1.7259244341403246e-03</internalNodes>
      <leafValues>
        1.6542766988277435e-01 -1.7916932702064514e-01</leafValues></_>
    <_>
      <internalNodes>
        0 -1 6078 -4.8210546374320984e-03</internalNodes>
      <leafValues>
        3.4703692793846130e-01 -8.7556011974811554e-02</leafValues></_>
    <_>
      <internalNodes>
        0 -1 67342 -4.1126765427179635e-04</internalNodes>
      <leafValues>
        -2.3764549195766449e-01 1.3280692696571350e-01</leafValues></_>
    <_>
      <internalNodes>
        0 -1 2158 3.0251964926719666e-02</internalNodes>
      <leafValues>
        4.1666369885206223e-02 -7.1642518043518066e-01</leafValues></_>
    <_>
      <internalNodes>
        0 -1 45412 -2.7670031413435936e-03</internalNodes>
      <leafValues>
        3.7908342480659485e-01 -8.0079987645149231e-02</leafValues></_>
    <_>
      <internalNodes>
        0 -1 1241 -5.4952003061771393e-02</internalNodes>
      <leafValues>
        -8.0307948589324951e-01 4.2276378720998764e-02</leafValues></_>
    <_>
      <internalNodes>
        0 -1 65813 -1.5199661720544100e-03</internalNodes>
      <leafValues>
        1.5856391191482544e-01 -1.8778410553932190e-01</leafValues></_>
    <_>
      <internalNodes>
        0 -1 77838 -6.4832821954041719e-04</internalNodes>
      <leafValues>
        -3.4965580701828003e-01 9.8636977374553680e-02</leafValues></_>
    <_>
      <internalNodes>
        0 -1 10786 6.9486638531088829e-03</internalNodes>
      <leafValues>
        3.9772659540176392e-02 -8.2481867074966431e-01</leafValues></_>
    <_>
      <internalNodes>
        0 -1 50249 -8.3865024149417877e-02</internalNodes>
      <leafValues>
        7.0711630582809448e-01 -5.0243150442838669e-02</leafValues></_>
    <_>
      <internalNodes>
        0 -1 8269 1.7254779115319252e-02</internalNodes>
      <leafValues>
        -1.6754142940044403e-01 1.8664418160915375e-01</leafValues></_>
    <_>
      <internalNodes>
        0 -1 76025 3.3870637416839600e-03</internalNodes>
      <leafValues>
        3.8206383585929871e-02 -6.7868280410766602e-01</leafValues></_></weakClassifiers></stage12>
</opencv_storage>
