<?xml version="1.0"?>
<opencv_storage>
<stage23>
  <maxWeakCount>59</maxWeakCount>
  <stageThreshold>-6.1270791292190552e-01</stageThreshold>
  <weakClassifiers>
    <_>
      <internalNodes>
        0 -1 3369 2.7371507603675127e-03</internalNodes>
      <leafValues>
        1.4830157160758972e-01 6.3533568382263184e-01</leafValues></_>
    <_>
      <internalNodes>
        0 -1 75753 -7.7971522696316242e-03</internalNodes>
      <leafValues>
        4.8232936859130859e-01 -1.0102977603673935e-01</leafValues></_>
    <_>
      <internalNodes>
        0 -1 28648 2.5681243278086185e-03</internalNodes>
      <leafValues>
        -9.1176517307758331e-02 4.3727329373359680e-01</leafValues></_>
    <_>
      <internalNodes>
        0 -1 73852 7.6759681105613708e-03</internalNodes>
      <leafValues>
        2.0346151664853096e-02 -6.4269536733627319e-01</leafValues></_>
    <_>
      <internalNodes>
        0 -1 55565 3.4291345626115799e-02</internalNodes>
      <leafValues>
        7.0003166794776917e-02 -4.1967913508415222e-01</leafValues></_>
    <_>
      <internalNodes>
        0 -1 14946 7.1753613650798798e-02</internalNodes>
      <leafValues>
        5.1291380077600479e-02 -4.9667948484420776e-01</leafValues></_>
    <_>
      <internalNodes>
        0 -1 28652 1.0323170572519302e-03</internalNodes>
      <leafValues>
        -7.7046841382980347e-02 3.3681941032409668e-01</leafValues></_>
    <_>
      <internalNodes>
        0 -1 58595 -4.5994704123586416e-05</internalNodes>
      <leafValues>
        1.4886164665222168e-01 -1.8544924259185791e-01</leafValues></_>
    <_>
      <internalNodes>
        0 -1 14319 1.5011662617325783e-03</internalNodes>
      <leafValues>
        -9.6240177750587463e-02 3.1567403674125671e-01</leafValues></_>
    <_>
      <internalNodes>
        0 -1 76469 -4.5656663132831454e-05</internalNodes>
      <leafValues>
        1.4028151333332062e-01 -2.2598014771938324e-01</leafValues></_>
    <_>
      <internalNodes>
        0 -1 4514 -5.0370614044368267e-03</internalNodes>
      <leafValues>
        -4.4160360097885132e-01 6.8271443247795105e-02</leafValues></_>
    <_>
      <internalNodes>
        0 -1 9658 -1.6761936713010073e-03</internalNodes>
      <leafValues>
        2.4771822988986969e-01 -1.1738415807485580e-01</leafValues></_>
    <_>
      <internalNodes>
        0 -1 62058 -6.2585584819316864e-03</internalNodes>
      <leafValues>
        -5.6837433576583862e-01 6.0023233294487000e-02</leafValues></_>
    <_>
      <internalNodes>
        0 -1 71181 2.3056797217577696e-03</internalNodes>
      <leafValues>
        -8.2303285598754883e-02 3.1213292479515076e-01</leafValues></_>
    <_>
      <internalNodes>
        0 -1 35159 -1.7351526021957397e-01</internalNodes>
      <leafValues>
        4.7060644626617432e-01 -6.2861181795597076e-02</leafValues></_>
    <_>
      <internalNodes>
        0 -1 20514 -2.5533828884363174e-02</internalNodes>
      <leafValues>
        4.2787283658981323e-01 -5.9306968003511429e-02</leafValues></_>
    <_>
      <internalNodes>
        0 -1 69994 -2.9130987240932882e-04</internalNodes>
      <leafValues>
        -1.8648840487003326e-01 1.3961091637611389e-01</leafValues></_>
    <_>
      <internalNodes>
        0 -1 25378 -4.5951408537803218e-05</internalNodes>
      <leafValues>
        1.4119429886341095e-01 -1.7885711789131165e-01</leafValues></_>
    <_>
      <internalNodes>
        0 -1 8108 -3.4681897610425949e-02</internalNodes>
      <leafValues>
        -4.9196088314056396e-01 4.5130509883165359e-02</leafValues></_>
    <_>
      <internalNodes>
        0 -1 14317 -2.2133314050734043e-03</internalNodes>
      <leafValues>
        4.3565016984939575e-01 -5.5632393807172775e-02</leafValues></_>
    <_>
      <internalNodes>
        0 -1 27270 -3.0824277200736105e-04</internalNodes>
      <leafValues>
        1.6185095906257629e-01 -1.4902710914611816e-01</leafValues></_>
    <_>
      <internalNodes>
        0 -1 71326 1.8364764750003815e-02</internalNodes>
      <leafValues>
        -1.1990784108638763e-01 2.1604111790657043e-01</leafValues></_>
    <_>
      <internalNodes>
        0 -1 64815 5.8605995029211044e-02</internalNodes>
      <leafValues>
        3.5277441143989563e-02 -7.4062174558639526e-01</leafValues></_>
    <_>
      <internalNodes>
        0 -1 74873 -2.5627398863434792e-02</internalNodes>
      <leafValues>
        -7.0075464248657227e-01 2.5182075798511505e-02</leafValues></_>
    <_>
      <internalNodes>
        0 -1 54138 -1.2018874287605286e-02</internalNodes>
      <leafValues>
        1.9235634803771973e-01 -1.1146919429302216e-01</leafValues></_>
    <_>
      <internalNodes>
        0 -1 30616 2.9830378293991089e-01</internalNodes>
      <leafValues>
        -4.5387063175439835e-02 4.6946069598197937e-01</leafValues></_>
    <_>
      <internalNodes>
        0 -1 45586 1.5322780236601830e-02</internalNodes>
      <leafValues>
        -1.5312877297401428e-01 1.4993894100189209e-01</leafValues></_>
    <_>
      <internalNodes>
        0 -1 59268 1.6511507332324982e-02</internalNodes>
      <leafValues>
        3.7945456802845001e-02 -5.7506966590881348e-01</leafValues></_>
    <_>
      <internalNodes>
        0 -1 45538 -5.3282058797776699e-03</internalNodes>
      <leafValues>
        2.8395226597785950e-01 -7.6229870319366455e-02</leafValues></_>
    <_>
      <internalNodes>
        0 -1 14903 1.2013922678306699e-03</internalNodes>
      <leafValues>
        -1.5388743579387665e-01 1.4254833757877350e-01</leafValues></_>
    <_>
      <internalNodes>
        0 -1 13067 -4.3830923736095428e-02</internalNodes>
      <leafValues>
        -6.4337146282196045e-01 3.0167346820235252e-02</leafValues></_>
    <_>
      <internalNodes>
        0 -1 78346 -1.1033941060304642e-02</internalNodes>
      <leafValues>
        -5.9709262847900391e-01 3.0498703941702843e-02</leafValues></_>
    <_>
      <internalNodes>
        0 -1 74909 2.6700494345277548e-04</internalNodes>
      <leafValues>
        9.8577819764614105e-02 -2.2147497534751892e-01</leafValues></_>
    <_>
      <internalNodes>
        0 -1 15255 1.5958312898874283e-02</internalNodes>
      <leafValues>
        6.9797240197658539e-02 -2.8989502787590027e-01</leafValues></_>
    <_>
      <internalNodes>
        0 -1 68841 3.0189733952283859e-03</internalNodes>
      <leafValues>
        -4.8701703548431396e-02 4.6217960119247437e-01</leafValues></_>
    <_>
      <internalNodes>
        0 -1 70543 -2.1037468686699867e-03</internalNodes>
      <leafValues>
        1.9136115908622742e-01 -1.1551317572593689e-01</leafValues></_>
    <_>
      <internalNodes>
        0 -1 37810 -9.2934159329161048e-04</internalNodes>
      <leafValues>
        -1.8769697844982147e-01 1.3289240002632141e-01</leafValues></_>
    <_>
      <internalNodes>
        0 -1 71201 -2.0329239778220654e-03</internalNodes>
      <leafValues>
        3.4172710776329041e-01 -6.6438384354114532e-02</leafValues></_>
    <_>
      <internalNodes>
        0 -1 55343 4.9648188054561615e-02</internalNodes>
      <leafValues>
        4.9529708921909332e-02 -4.2521020770072937e-01</leafValues></_>
    <_>
      <internalNodes>
        0 -1 49548 3.8833694998174906e-04</internalNodes>
      <leafValues>
        -1.4484189450740814e-01 1.5312193334102631e-01</leafValues></_>
    <_>
      <internalNodes>
        0 -1 21308 -2.9297009110450745e-02</internalNodes>
      <leafValues>
        2.6497966051101685e-01 -8.2860842347145081e-02</leafValues></_>
    <_>
      <internalNodes>
        0 -1 51689 -1.4581108698621392e-03</internalNodes>
      <leafValues>
        1.3658155500888824e-01 -1.6266782581806183e-01</leafValues></_>
    <_>
      <internalNodes>
        0 -1 75133 -8.2734780153259635e-04</internalNodes>
      <leafValues>
        3.1420451402664185e-01 -8.0850325524806976e-02</leafValues></_>
    <_>
      <internalNodes>
        0 -1 44152 -4.4288317440077662e-04</internalNodes>
      <leafValues>
        1.2088113278150558e-01 -1.9505736231803894e-01</leafValues></_>
    <_>
      <internalNodes>
        0 -1 77695 -3.6124732345342636e-02</internalNodes>
      <leafValues>
        -3.5850286483764648e-01 7.1334689855575562e-02</leafValues></_>
    <_>
      <internalNodes>
        0 -1 58555 -1.0007256641983986e-03</internalNodes>
      <leafValues>
        -4.4075396656990051e-01 4.5120567083358765e-02</leafValues></_>
    <_>
      <internalNodes>
        0 -1 77623 -1.0266074677929282e-03</internalNodes>
      <leafValues>
        3.0547624826431274e-01 -7.3159977793693542e-02</leafValues></_>
    <_>
      <internalNodes>
        0 -1 68461 -4.4701695442199707e-03</internalNodes>
      <leafValues>
        -3.2709628343582153e-01 6.8367950618267059e-02</leafValues></_>
    <_>
      <internalNodes>
        0 -1 70280 5.4888643324375153e-02</internalNodes>
      <leafValues>
        -7.5163781642913818e-02 2.9297396540641785e-01</leafValues></_>
    <_>
      <internalNodes>
        0 -1 3337 3.7153158336877823e-03</internalNodes>
      <leafValues>
        -9.7374521195888519e-02 2.3632572591304779e-01</leafValues></_>
    <_>
      <internalNodes>
        0 -1 2741 -4.9396697431802750e-04</internalNodes>
      <leafValues>
        2.2509287297725677e-01 -1.6595728695392609e-01</leafValues></_>
    <_>
      <internalNodes>
        0 -1 2112 -4.5782065717503428e-04</internalNodes>
      <leafValues>
        -2.9697471857070923e-01 1.0581095516681671e-01</leafValues></_>
    <_>
      <internalNodes>
        0 -1 2112 7.9898128751665354e-04</internalNodes>
      <leafValues>
        8.2173608243465424e-02 -2.7434992790222168e-01</leafValues></_>
    <_>
      <internalNodes>
        0 -1 9034 -6.1119543388485909e-03</internalNodes>
      <leafValues>
        2.7953764796257019e-01 -1.0471694916486740e-01</leafValues></_>
    <_>
      <internalNodes>
        0 -1 77016 -7.2512839687988162e-04</internalNodes>
      <leafValues>
        -2.7317622303962708e-01 7.5427949428558350e-02</leafValues></_>
    <_>
      <internalNodes>
        0 -1 72935 1.3716025277972221e-03</internalNodes>
      <leafValues>
        -5.0160702317953110e-02 4.7191920876502991e-01</leafValues></_>
    <_>
      <internalNodes>
        0 -1 38421 -2.5340271531604230e-04</internalNodes>
      <leafValues>
        1.6548974812030792e-01 -1.3580380380153656e-01</leafValues></_>
    <_>
      <internalNodes>
        0 -1 24981 2.2098902612924576e-02</internalNodes>
      <leafValues>
        -4.3802838772535324e-02 5.0922656059265137e-01</leafValues></_>
    <_>
      <internalNodes>
        0 -1 17423 -1.1321904137730598e-02</internalNodes>
      <leafValues>
        -8.1890565156936646e-01 3.0335126444697380e-02</leafValues></_></weakClassifiers></stage23>
</opencv_storage>
