<?xml version="1.0"?>
<opencv_storage>
<stage15>
  <maxWeakCount>48</maxWeakCount>
  <stageThreshold>-7.3243147134780884e-01</stageThreshold>
  <weakClassifiers>
    <_>
      <internalNodes>
        0 -1 811 6.6747916862368584e-03</internalNodes>
      <leafValues>
        1.5238095819950104e-01 7.4131941795349121e-01</leafValues></_>
    <_>
      <internalNodes>
        0 -1 69019 4.1516264900565147e-03</internalNodes>
      <leafValues>
        -1.7442744970321655e-01 4.2967262864112854e-01</leafValues></_>
    <_>
      <internalNodes>
        0 -1 5709 5.4178154096007347e-03</internalNodes>
      <leafValues>
        -1.3371546566486359e-01 4.3169930577278137e-01</leafValues></_>
    <_>
      <internalNodes>
        0 -1 35164 -2.1171224117279053e-01</internalNodes>
      <leafValues>
        2.8370371460914612e-01 -1.8655531108379364e-01</leafValues></_>
    <_>
      <internalNodes>
        0 -1 69014 -3.4784316085278988e-03</internalNodes>
      <leafValues>
        4.7522962093353271e-01 -7.9390503466129303e-02</leafValues></_>
    <_>
      <internalNodes>
        0 -1 74869 -1.3102606171742082e-03</internalNodes>
      <leafValues>
        1.7209142446517944e-01 -2.2024174034595490e-01</leafValues></_>
    <_>
      <internalNodes>
        0 -1 77132 9.9033750593662262e-03</internalNodes>
      <leafValues>
        -9.0343885123729706e-02 3.9533147215843201e-01</leafValues></_>
    <_>
      <internalNodes>
        0 -1 72004 4.6214517205953598e-03</internalNodes>
      <leafValues>
        8.4640167653560638e-02 -4.1368499398231506e-01</leafValues></_>
    <_>
      <internalNodes>
        0 -1 22127 1.0409032925963402e-02</internalNodes>
      <leafValues>
        1.2033049017190933e-01 -3.1749072670936584e-01</leafValues></_>
    <_>
      <internalNodes>
        0 -1 65353 -1.5891609946265817e-03</internalNodes>
      <leafValues>
        -4.4297823309898376e-01 7.6844900846481323e-02</leafValues></_>
    <_>
      <internalNodes>
        0 -1 77200 -5.5605550296604633e-03</internalNodes>
      <leafValues>
        3.7341693043708801e-01 -1.0258859395980835e-01</leafValues></_>
    <_>
      <internalNodes>
        0 -1 34389 9.0867932885885239e-03</internalNodes>
      <leafValues>
        -8.4759652614593506e-02 3.7428221106529236e-01</leafValues></_>
    <_>
      <internalNodes>
        0 -1 2184 -2.7296047192066908e-03</internalNodes>
      <leafValues>
        2.5036829710006714e-01 -1.5422475337982178e-01</leafValues></_>
    <_>
      <internalNodes>
        0 -1 32451 -3.0437059700489044e-02</internalNodes>
      <leafValues>
        -3.9421346783638000e-01 9.3583688139915466e-02</leafValues></_>
    <_>
      <internalNodes>
        0 -1 68784 -1.2667807750403881e-02</internalNodes>
      <leafValues>
        -4.3268433213233948e-01 7.6917715370655060e-02</leafValues></_>
    <_>
      <internalNodes>
        0 -1 7466 -3.5974485799670219e-03</internalNodes>
      <leafValues>
        3.2129487395286560e-01 -8.4769062697887421e-02</leafValues></_>
    <_>
      <internalNodes>
        0 -1 773 -6.2849670648574829e-03</internalNodes>
      <leafValues>
        3.0254235863685608e-01 -1.0750658065080643e-01</leafValues></_>
    <_>
      <internalNodes>
        0 -1 11862 -2.9360551852732897e-03</internalNodes>
      <leafValues>
        -3.3094301819801331e-01 8.8327325880527496e-02</leafValues></_>
    <_>
      <internalNodes>
        0 -1 35797 3.0308654531836510e-03</internalNodes>
      <leafValues>
        -1.1003657430410385e-01 2.6738810539245605e-01</leafValues></_>
    <_>
      <internalNodes>
        0 -1 76850 2.0063696429133415e-03</internalNodes>
      <leafValues>
        -1.3810350000858307e-01 1.9082084298133850e-01</leafValues></_>
    <_>
      <internalNodes>
        0 -1 72089 -2.7280417270958424e-03</internalNodes>
      <leafValues>
        3.0312174558639526e-01 -1.1198139190673828e-01</leafValues></_>
    <_>
      <internalNodes>
        0 -1 77434 -1.5042802318930626e-02</internalNodes>
      <leafValues>
        -6.2026470899581909e-01 5.2172072231769562e-02</leafValues></_>
    <_>
      <internalNodes>
        0 -1 39773 3.5294055938720703e-02</internalNodes>
      <leafValues>
        5.5307783186435699e-02 -4.4578179717063904e-01</leafValues></_>
    <_>
      <internalNodes>
        0 -1 58954 1.0098034888505936e-01</internalNodes>
      <leafValues>
        6.1614669859409332e-02 -3.9417421817779541e-01</leafValues></_>
    <_>
      <internalNodes>
        0 -1 66001 7.3173241689801216e-03</internalNodes>
      <leafValues>
        -1.7830917239189148e-01 1.8936856091022491e-01</leafValues></_>
    <_>
      <internalNodes>
        0 -1 40274 -4.5660249888896942e-03</internalNodes>
      <leafValues>
        3.6350604891777039e-01 -7.8717336058616638e-02</leafValues></_>
    <_>
      <internalNodes>
        0 -1 54424 1.4487655833363533e-02</internalNodes>
      <leafValues>
        5.1601696759462357e-02 -6.1244398355484009e-01</leafValues></_>
    <_>
      <internalNodes>
        0 -1 50323 3.0519356951117516e-03</internalNodes>
      <leafValues>
        -1.6493988037109375e-01 1.6121590137481689e-01</leafValues></_>
    <_>
      <internalNodes>
        0 -1 50616 -9.4688255339860916e-03</internalNodes>
      <leafValues>
        3.0074363946914673e-01 -8.9415296912193298e-02</leafValues></_>
    <_>
      <internalNodes>
        0 -1 40559 -5.0393752753734589e-03</internalNodes>
      <leafValues>
        -4.5274248719215393e-01 7.6258450746536255e-02</leafValues></_>
    <_>
      <internalNodes>
        0 -1 77795 9.6847843378782272e-03</internalNodes>
      <leafValues>
        -1.2666617333889008e-01 2.0869886875152588e-01</leafValues></_>
    <_>
      <internalNodes>
        0 -1 75138 3.7410343065857887e-03</internalNodes>
      <leafValues>
        -5.8271694928407669e-02 4.8337122797966003e-01</leafValues></_>
    <_>
      <internalNodes>
        0 -1 45279 -8.2588084042072296e-03</internalNodes>
      <leafValues>
        -5.9799313545227051e-01 5.0965249538421631e-02</leafValues></_>
    <_>
      <internalNodes>
        0 -1 62096 -3.9560981094837189e-03</internalNodes>
      <leafValues>
        -4.6899271011352539e-01 4.8486184328794479e-02</leafValues></_>
    <_>
      <internalNodes>
        0 -1 8408 5.0403950735926628e-03</internalNodes>
      <leafValues>
        -1.2979510426521301e-01 1.9205434620380402e-01</leafValues></_>
    <_>
      <internalNodes>
        0 -1 16125 2.3216417059302330e-02</internalNodes>
      <leafValues>
        3.3471439033746719e-02 -8.3585357666015625e-01</leafValues></_>
    <_>
      <internalNodes>
        0 -1 2112 3.0387251172214746e-04</internalNodes>
      <leafValues>
        1.0924401134252548e-01 -2.3451021313667297e-01</leafValues></_>
    <_>
      <internalNodes>
        0 -1 24500 1.1801595101132989e-03</internalNodes>
      <leafValues>
        7.6613262295722961e-02 -3.6294919252395630e-01</leafValues></_>
    <_>
      <internalNodes>
        0 -1 76590 -2.1206880919635296e-03</internalNodes>
      <leafValues>
        5.4074335098266602e-01 -5.3754165768623352e-02</leafValues></_>
    <_>
      <internalNodes>
        0 -1 6755 -2.0413642749190331e-02</internalNodes>
      <leafValues>
        2.6550444960594177e-01 -9.6683196723461151e-02</leafValues></_>
    <_>
      <internalNodes>
        0 -1 68932 -4.4470367720350623e-04</internalNodes>
      <leafValues>
        -2.2891320288181305e-01 1.2467857450246811e-01</leafValues></_>
    <_>
      <internalNodes>
        0 -1 33805 -7.6042686123400927e-04</internalNodes>
      <leafValues>
        -3.2778847217559814e-01 7.7626638114452362e-02</leafValues></_>
    <_>
      <internalNodes>
        0 -1 65909 9.9470987915992737e-02</internalNodes>
      <leafValues>
        3.7138104438781738e-02 -6.2029474973678589e-01</leafValues></_>
    <_>
      <internalNodes>
        0 -1 23502 -3.8576619699597359e-03</internalNodes>
      <leafValues>
        -8.6635011434555054e-01 2.4833342060446739e-02</leafValues></_>
    <_>
      <internalNodes>
        0 -1 22941 -2.3903260007500648e-03</internalNodes>
      <leafValues>
        4.5346203446388245e-01 -6.0285005718469620e-02</leafValues></_>
    <_>
      <internalNodes>
        0 -1 75091 1.9421607255935669e-02</internalNodes>
      <leafValues>
        -5.5386606603860855e-02 4.6221134066581726e-01</leafValues></_>
    <_>
      <internalNodes>
        0 -1 64101 -7.5890682637691498e-05</internalNodes>
      <leafValues>
        1.4269883930683136e-01 -1.6931898891925812e-01</leafValues></_>
    <_>
      <internalNodes>
        0 -1 66630 8.1589985638856888e-03</internalNodes>
      <leafValues>
        -6.9292902946472168e-02 4.1461002826690674e-01</leafValues></_></weakClassifiers></stage15>
</opencv_storage>
