<?xml version="1.0"?>
<opencv_storage>
<stage10>
  <maxWeakCount>36</maxWeakCount>
  <stageThreshold>-7.5267446041107178e-01</stageThreshold>
  <weakClassifiers>
    <_>
      <internalNodes>
        0 -1 15429 8.1600341945886612e-03</internalNodes>
      <leafValues>
        4.9119554460048676e-02 6.6429036855697632e-01</leafValues></_>
    <_>
      <internalNodes>
        0 -1 3335 4.5612761750817299e-03</internalNodes>
      <leafValues>
        -1.5862965583801270e-01 5.2888631820678711e-01</leafValues></_>
    <_>
      <internalNodes>
        0 -1 42147 -3.2560646533966064e-01</internalNodes>
      <leafValues>
        4.5288264751434326e-01 -1.6150106489658356e-01</leafValues></_>
    <_>
      <internalNodes>
        0 -1 50322 -5.7313391007483006e-03</internalNodes>
      <leafValues>
        5.5675220489501953e-01 -1.1671151220798492e-01</leafValues></_>
    <_>
      <internalNodes>
        0 -1 71967 1.6570098698139191e-02</internalNodes>
      <leafValues>
        -1.6710720956325531e-01 3.1578812003135681e-01</leafValues></_>
    <_>
      <internalNodes>
        0 -1 7163 -4.4212667271494865e-03</internalNodes>
      <leafValues>
        3.5879558324813843e-01 -1.1813855171203613e-01</leafValues></_>
    <_>
      <internalNodes>
        0 -1 14141 -8.2144150510430336e-03</internalNodes>
      <leafValues>
        3.5932528972625732e-01 -1.4230994880199432e-01</leafValues></_>
    <_>
      <internalNodes>
        0 -1 71844 -1.7403450328856707e-03</internalNodes>
      <leafValues>
        -5.7844531536102295e-01 9.5283366739749908e-02</leafValues></_>
    <_>
      <internalNodes>
        0 -1 1434 9.7260030452162027e-04</internalNodes>
      <leafValues>
        9.5173142850399017e-02 -4.1870382428169250e-01</leafValues></_>
    <_>
      <internalNodes>
        0 -1 62476 -9.8640657961368561e-04</internalNodes>
      <leafValues>
        1.8428897857666016e-01 -2.2819186747074127e-01</leafValues></_>
    <_>
      <internalNodes>
        0 -1 534 -2.0121302455663681e-02</internalNodes>
      <leafValues>
        -4.2397662997245789e-01 1.0214730352163315e-01</leafValues></_>
    <_>
      <internalNodes>
        0 -1 73230 8.6290566250681877e-03</internalNodes>
      <leafValues>
        5.4402925074100494e-02 -6.7184537649154663e-01</leafValues></_>
    <_>
      <internalNodes>
        0 -1 3360 -5.0146672874689102e-03</internalNodes>
      <leafValues>
        3.1985956430435181e-01 -1.3545601069927216e-01</leafValues></_>
    <_>
      <internalNodes>
        0 -1 790 1.1501036584377289e-02</internalNodes>
      <leafValues>
        -1.0168627649545670e-01 3.4728005528450012e-01</leafValues></_>
    <_>
      <internalNodes>
        0 -1 70690 -5.7665794156491756e-04</internalNodes>
      <leafValues>
        -3.5049420595169067e-01 1.0571943223476410e-01</leafValues></_>
    <_>
      <internalNodes>
        0 -1 73596 -8.1402212381362915e-03</internalNodes>
      <leafValues>
        5.2857327461242676e-01 -7.6770737767219543e-02</leafValues></_>
    <_>
      <internalNodes>
        0 -1 63601 2.0772486459463835e-03</internalNodes>
      <leafValues>
        7.8729115426540375e-02 -5.7883977890014648e-01</leafValues></_>
    <_>
      <internalNodes>
        0 -1 75240 -1.1459985747933388e-02</internalNodes>
      <leafValues>
        -6.6873908042907715e-01 5.4714083671569824e-02</leafValues></_>
    <_>
      <internalNodes>
        0 -1 54913 3.6237938329577446e-03</internalNodes>
      <leafValues>
        -1.7650192975997925e-01 2.4548004567623138e-01</leafValues></_>
    <_>
      <internalNodes>
        0 -1 73138 -7.8214416280388832e-03</internalNodes>
      <leafValues>
        2.3577721416950226e-01 -1.6092324256896973e-01</leafValues></_>
    <_>
      <internalNodes>
        0 -1 7447 1.1062186677008867e-03</internalNodes>
      <leafValues>
        1.0284647345542908e-01 -3.8989621400833130e-01</leafValues></_>
    <_>
      <internalNodes>
        0 -1 68689 -3.4596114419400692e-03</internalNodes>
      <leafValues>
        3.5644495487213135e-01 -1.0957366973161697e-01</leafValues></_>
    <_>
      <internalNodes>
        0 -1 65205 -6.4173259306699038e-04</internalNodes>
      <leafValues>
        -3.8786542415618896e-01 9.4678796827793121e-02</leafValues></_>
    <_>
      <internalNodes>
        0 -1 28158 3.8761004805564880e-02</internalNodes>
      <leafValues>
        3.8872539997100830e-02 -7.6721465587615967e-01</leafValues></_>
    <_>
      <internalNodes>
        0 -1 43247 -2.9784752987325191e-03</internalNodes>
      <leafValues>
        -3.9947760105133057e-01 7.2237856686115265e-02</leafValues></_>
    <_>
      <internalNodes>
        0 -1 67822 -1.7003491520881653e-02</internalNodes>
      <leafValues>
        -7.5476354360580444e-01 4.1038788855075836e-02</leafValues></_>
    <_>
      <internalNodes>
        0 -1 339 1.0343838483095169e-02</internalNodes>
      <leafValues>
        -1.2502075731754303e-01 2.6184520125389099e-01</leafValues></_>
    <_>
      <internalNodes>
        0 -1 55101 4.3689388781785965e-02</internalNodes>
      <leafValues>
        -5.4260373115539551e-02 5.4591554403305054e-01</leafValues></_>
    <_>
      <internalNodes>
        0 -1 52519 -2.8583072125911713e-03</internalNodes>
      <leafValues>
        1.9173847138881683e-01 -2.1514378488063812e-01</leafValues></_>
    <_>
      <internalNodes>
        0 -1 22496 -4.4724466279149055e-03</internalNodes>
      <leafValues>
        2.6332581043243408e-01 -1.6112215816974640e-01</leafValues></_>
    <_>
      <internalNodes>
        0 -1 15259 3.2091654837131500e-02</internalNodes>
      <leafValues>
        1.0463176667690277e-01 -3.6554166674613953e-01</leafValues></_>
    <_>
      <internalNodes>
        0 -1 16965 1.8700993061065674e-01</internalNodes>
      <leafValues>
        -5.4193478077650070e-02 7.3468273878097534e-01</leafValues></_>
    <_>
      <internalNodes>
        0 -1 15772 -7.2370424866676331e-02</internalNodes>
      <leafValues>
        5.2874970436096191e-01 -5.9405382722616196e-02</leafValues></_>
    <_>
      <internalNodes>
        0 -1 50846 3.8335481076501310e-04</internalNodes>
      <leafValues>
        1.2701003253459930e-01 -3.0145418643951416e-01</leafValues></_>
    <_>
      <internalNodes>
        0 -1 75171 1.1285440996289253e-03</internalNodes>
      <leafValues>
        9.0331323444843292e-02 -3.7125429511070251e-01</leafValues></_>
    <_>
      <internalNodes>
        0 -1 29210 3.6197961308062077e-03</internalNodes>
      <leafValues>
        5.4179850965738297e-02 -5.6474107503890991e-01</leafValues></_></weakClassifiers></stage10>
</opencv_storage>
