<?xml version="1.0"?>
<opencv_storage>
<stage8>
  <maxWeakCount>41</maxWeakCount>
  <stageThreshold>-7.8511673212051392e-01</stageThreshold>
  <weakClassifiers>
    <_>
      <internalNodes>
        0 -1 936 2.6474963873624802e-02</internalNodes>
      <leafValues>
        8.8855423033237457e-02 7.4188560247421265e-01</leafValues></_>
    <_>
      <internalNodes>
        0 -1 77901 -3.6768964491784573e-03</internalNodes>
      <leafValues>
        5.3756266832351685e-01 -1.8519778549671173e-01</leafValues></_>
    <_>
      <internalNodes>
        0 -1 34649 3.1669154763221741e-02</internalNodes>
      <leafValues>
        -1.9184827804565430e-01 2.9210337996482849e-01</leafValues></_>
    <_>
      <internalNodes>
        0 -1 76457 -4.1417609900236130e-03</internalNodes>
      <leafValues>
        -5.7206732034683228e-01 9.2884652316570282e-02</leafValues></_>
    <_>
      <internalNodes>
        0 -1 14115 3.2376477029174566e-03</internalNodes>
      <leafValues>
        -1.2103213369846344e-01 4.3921154737472534e-01</leafValues></_>
    <_>
      <internalNodes>
        0 -1 4414 -6.7722699604928493e-03</internalNodes>
      <leafValues>
        4.8288115859031677e-01 -1.2916457653045654e-01</leafValues></_>
    <_>
      <internalNodes>
        0 -1 53838 -1.3183766277506948e-03</internalNodes>
      <leafValues>
        2.3942025005817413e-01 -2.1976178884506226e-01</leafValues></_>
    <_>
      <internalNodes>
        0 -1 9915 -1.4374133944511414e-01</internalNodes>
      <leafValues>
        6.0067576169967651e-01 -1.0412911325693130e-01</leafValues></_>
    <_>
      <internalNodes>
        0 -1 66804 -6.9989217445254326e-04</internalNodes>
      <leafValues>
        -3.7294217944145203e-01 1.2901879847049713e-01</leafValues></_>
    <_>
      <internalNodes>
        0 -1 65877 -3.8024974055588245e-03</internalNodes>
      <leafValues>
        3.2505202293395996e-01 -1.3096266984939575e-01</leafValues></_>
    <_>
      <internalNodes>
        0 -1 77968 9.5090102404356003e-03</internalNodes>
      <leafValues>
        -1.0950654000043869e-01 4.4595882296562195e-01</leafValues></_>
    <_>
      <internalNodes>
        0 -1 44556 -1.8499634461477399e-04</internalNodes>
      <leafValues>
        1.7859625816345215e-01 -2.3447245359420776e-01</leafValues></_>
    <_>
      <internalNodes>
        0 -1 62299 7.2451033629477024e-03</internalNodes>
      <leafValues>
        -1.3837248086929321e-01 2.8346541523933411e-01</leafValues></_>
    <_>
      <internalNodes>
        0 -1 48697 4.0945284068584442e-02</internalNodes>
      <leafValues>
        -9.9594190716743469e-02 4.2372286319732666e-01</leafValues></_>
    <_>
      <internalNodes>
        0 -1 5669 5.6969486176967621e-02</internalNodes>
      <leafValues>
        7.7912561595439911e-02 -5.7628339529037476e-01</leafValues></_>
    <_>
      <internalNodes>
        0 -1 66052 6.3803019002079964e-03</internalNodes>
      <leafValues>
        5.2708711475133896e-02 -6.5190321207046509e-01</leafValues></_>
    <_>
      <internalNodes>
        0 -1 74675 1.0473683942109346e-03</internalNodes>
      <leafValues>
        7.5835771858692169e-02 -4.2901632189750671e-01</leafValues></_>
    <_>
      <internalNodes>
        0 -1 65328 -5.6698198022786528e-05</internalNodes>
      <leafValues>
        1.7144577205181122e-01 -2.1531955897808075e-01</leafValues></_>
    <_>
      <internalNodes>
        0 -1 3879 -3.0332426540553570e-03</internalNodes>
      <leafValues>
        4.3157932162284851e-01 -8.3776369690895081e-02</leafValues></_>
    <_>
      <internalNodes>
        0 -1 18786 -2.5199691299349070e-04</internalNodes>
      <leafValues>
        -2.6043742895126343e-01 1.3589717447757721e-01</leafValues></_>
    <_>
      <internalNodes>
        0 -1 7837 2.4123070761561394e-02</internalNodes>
      <leafValues>
        -8.5659503936767578e-02 4.0900179743766785e-01</leafValues></_>
    <_>
      <internalNodes>
        0 -1 54877 4.2048200964927673e-02</internalNodes>
      <leafValues>
        -8.3931758999824524e-02 4.3488043546676636e-01</leafValues></_>
    <_>
      <internalNodes>
        0 -1 71497 -1.6909770667552948e-02</internalNodes>
      <leafValues>
        -5.5744749307632446e-01 6.9219887256622314e-02</leafValues></_>
    <_>
      <internalNodes>
        0 -1 13979 1.9804721698164940e-02</internalNodes>
      <leafValues>
        -9.0767018496990204e-02 3.9648932218551636e-01</leafValues></_>
    <_>
      <internalNodes>
        0 -1 7208 -1.0286317206919193e-02</internalNodes>
      <leafValues>
        3.3840960264205933e-01 -1.0462035238742828e-01</leafValues></_>
    <_>
      <internalNodes>
        0 -1 44623 -3.8793408311903477e-03</internalNodes>
      <leafValues>
        -3.6511483788490295e-01 9.7650244832038879e-02</leafValues></_>
    <_>
      <internalNodes>
        0 -1 31626 -5.2891927771270275e-04</internalNodes>
      <leafValues>
        2.1026900410652161e-01 -1.6225378215312958e-01</leafValues></_>
    <_>
      <internalNodes>
        0 -1 65667 3.3495668321847916e-04</internalNodes>
      <leafValues>
        1.3315841555595398e-01 -2.6481500267982483e-01</leafValues></_>
    <_>
      <internalNodes>
        0 -1 71489 -1.6785694751888514e-03</internalNodes>
      <leafValues>
        3.3377751708030701e-01 -1.1840131133794785e-01</leafValues></_>
    <_>
      <internalNodes>
        0 -1 58734 -1.1264715343713760e-02</internalNodes>
      <leafValues>
        -3.8593062758445740e-01 9.3569159507751465e-02</leafValues></_>
    <_>
      <internalNodes>
        0 -1 77469 2.6232390664517879e-03</internalNodes>
      <leafValues>
        -8.7471887469291687e-02 3.6180236935615540e-01</leafValues></_>
    <_>
      <internalNodes>
        0 -1 19630 -6.3883024267852306e-04</internalNodes>
      <leafValues>
        -3.5225445032119751e-01 1.0270047187805176e-01</leafValues></_>
    <_>
      <internalNodes>
        0 -1 45301 5.7620271109044552e-03</internalNodes>
      <leafValues>
        -1.8407391011714935e-01 1.8444128334522247e-01</leafValues></_>
    <_>
      <internalNodes>
        0 -1 9267 -2.8601042926311493e-02</internalNodes>
      <leafValues>
        6.8545955419540405e-01 -6.1889097094535828e-02</leafValues></_>
    <_>
      <internalNodes>
        0 -1 76578 -1.1234851554036140e-02</internalNodes>
      <leafValues>
        4.9291461706161499e-01 -5.6479610502719879e-02</leafValues></_>
    <_>
      <internalNodes>
        0 -1 7624 5.2039977163076401e-04</internalNodes>
      <leafValues>
        1.0919422656297684e-01 -3.4207066893577576e-01</leafValues></_>
    <_>
      <internalNodes>
        0 -1 8642 4.1664343327283859e-02</internalNodes>
      <leafValues>
        -1.2951380014419556e-01 2.8114995360374451e-01</leafValues></_>
    <_>
      <internalNodes>
        0 -1 16447 4.7302164137363434e-02</internalNodes>
      <leafValues>
        5.0572078675031662e-02 -6.4678949117660522e-01</leafValues></_>
    <_>
      <internalNodes>
        0 -1 6673 9.3150790780782700e-04</internalNodes>
      <leafValues>
        -9.9402800202369690e-02 3.6066055297851562e-01</leafValues></_>
    <_>
      <internalNodes>
        0 -1 13755 9.0904291719198227e-03</internalNodes>
      <leafValues>
        -1.3197706639766693e-01 2.5827184319496155e-01</leafValues></_>
    <_>
      <internalNodes>
        0 -1 26504 -9.4479899853467941e-03</internalNodes>
      <leafValues>
        -5.1534211635589600e-01 6.7705728113651276e-02</leafValues></_></weakClassifiers></stage8>
</opencv_storage>
