<?xml version="1.0"?>
<opencv_storage>
<stage5>
  <maxWeakCount>32</maxWeakCount>
  <stageThreshold>-1.0275503396987915e+00</stageThreshold>
  <weakClassifiers>
    <_>
      <internalNodes>
        0 -1 2222 4.5479983091354370e-03</internalNodes>
      <leafValues>
        3.9001561701297760e-02 7.6716417074203491e-01</leafValues></_>
    <_>
      <internalNodes>
        0 -1 71269 1.0454740375280380e-02</internalNodes>
      <leafValues>
        -1.3044689595699310e-01 6.0660320520401001e-01</leafValues></_>
    <_>
      <internalNodes>
        0 -1 12544 -1.7250069975852966e-01</internalNodes>
      <leafValues>
        5.1883161067962646e-01 -1.9457432627677917e-01</leafValues></_>
    <_>
      <internalNodes>
        0 -1 60730 7.1862578392028809e-02</internalNodes>
      <leafValues>
        -1.8267925083637238e-01 5.1999896764755249e-01</leafValues></_>
    <_>
      <internalNodes>
        0 -1 62741 -1.5722657553851604e-03</internalNodes>
      <leafValues>
        -4.6091127395629883e-01 2.0097482204437256e-01</leafValues></_>
    <_>
      <internalNodes>
        0 -1 78096 3.2717830035835505e-03</internalNodes>
      <leafValues>
        4.0398359298706055e-02 -6.9055533409118652e-01</leafValues></_>
    <_>
      <internalNodes>
        0 -1 29018 -3.7951253354549408e-02</internalNodes>
      <leafValues>
        2.8563565015792847e-01 -2.0430465042591095e-01</leafValues></_>
    <_>
      <internalNodes>
        0 -1 26065 3.4288801252841949e-02</internalNodes>
      <leafValues>
        -1.3757903873920441e-01 3.8557416200637817e-01</leafValues></_>
    <_>
      <internalNodes>
        0 -1 63045 3.5250964574515820e-03</internalNodes>
      <leafValues>
        6.8756632506847382e-02 -6.3472431898117065e-01</leafValues></_>
    <_>
      <internalNodes>
        0 -1 68436 6.2750291544944048e-04</internalNodes>
      <leafValues>
        1.1343406140804291e-01 -4.3139821290969849e-01</leafValues></_>
    <_>
      <internalNodes>
        0 -1 65435 -1.1936954688280821e-03</internalNodes>
      <leafValues>
        -4.9416005611419678e-01 8.9462772011756897e-02</leafValues></_>
    <_>
      <internalNodes>
        0 -1 32328 -3.9547836058773100e-04</internalNodes>
      <leafValues>
        -3.4058690071105957e-01 1.2322518974542618e-01</leafValues></_>
    <_>
      <internalNodes>
        0 -1 28777 2.4682534858584404e-03</internalNodes>
      <leafValues>
        -1.8023569881916046e-01 2.5121900439262390e-01</leafValues></_>
    <_>
      <internalNodes>
        0 -1 35005 -6.2593936920166016e-02</internalNodes>
      <leafValues>
        6.1689937114715576e-01 -9.8165705800056458e-02</leafValues></_>
    <_>
      <internalNodes>
        0 -1 11735 1.5958964359015226e-03</internalNodes>
      <leafValues>
        1.1516115814447403e-01 -4.8259738087654114e-01</leafValues></_>
    <_>
      <internalNodes>
        0 -1 65202 -1.6198218872887082e-05</internalNodes>
      <leafValues>
        1.9990189373493195e-01 -2.4899967014789581e-01</leafValues></_>
    <_>
      <internalNodes>
        0 -1 71126 -2.0246751606464386e-02</internalNodes>
      <leafValues>
        5.3978657722473145e-01 -9.1561973094940186e-02</leafValues></_>
    <_>
      <internalNodes>
        0 -1 41243 -1.1932717263698578e-01</internalNodes>
      <leafValues>
        3.7836888432502747e-01 -1.2044779956340790e-01</leafValues></_>
    <_>
      <internalNodes>
        0 -1 70942 7.9488297924399376e-03</internalNodes>
      <leafValues>
        -1.2701666355133057e-01 3.6419701576232910e-01</leafValues></_>
    <_>
      <internalNodes>
        0 -1 21953 -5.9392675757408142e-03</internalNodes>
      <leafValues>
        4.8299714922904968e-01 -9.0788245201110840e-02</leafValues></_>
    <_>
      <internalNodes>
        0 -1 38725 -2.6007513952208683e-05</internalNodes>
      <leafValues>
        1.9070936739444733e-01 -2.3415762186050415e-01</leafValues></_>
    <_>
      <internalNodes>
        0 -1 11735 -5.0592649495229125e-04</internalNodes>
      <leafValues>
        -3.1363502144813538e-01 1.3115172088146210e-01</leafValues></_>
    <_>
      <internalNodes>
        0 -1 76924 3.2043252140283585e-02</internalNodes>
      <leafValues>
        -1.2091583758592606e-01 3.7701228260993958e-01</leafValues></_>
    <_>
      <internalNodes>
        0 -1 77754 -3.0589357018470764e-02</internalNodes>
      <leafValues>
        -4.3763753771781921e-01 1.0658089816570282e-01</leafValues></_>
    <_>
      <internalNodes>
        0 -1 72187 -1.5606078086420894e-03</internalNodes>
      <leafValues>
        2.1195329725742340e-01 -2.2533898055553436e-01</leafValues></_>
    <_>
      <internalNodes>
        0 -1 75867 -2.6919473893940449e-03</internalNodes>
      <leafValues>
        -5.1977533102035522e-01 9.9743045866489410e-02</leafValues></_>
    <_>
      <internalNodes>
        0 -1 75376 -1.9773126114159822e-03</internalNodes>
      <leafValues>
        -3.8364392518997192e-01 1.1334797739982605e-01</leafValues></_>
    <_>
      <internalNodes>
        0 -1 6075 5.9008337557315826e-03</internalNodes>
      <leafValues>
        -9.3208499252796173e-02 4.8450741171836853e-01</leafValues></_>
    <_>
      <internalNodes>
        0 -1 40853 1.8732775934040546e-03</internalNodes>
      <leafValues>
        6.2034368515014648e-02 -7.1494084596633911e-01</leafValues></_>
    <_>
      <internalNodes>
        0 -1 36350 6.3973171636462212e-03</internalNodes>
      <leafValues>
        -1.6837021708488464e-01 2.6134517788887024e-01</leafValues></_>
    <_>
      <internalNodes>
        0 -1 27033 -7.7971746213734150e-04</internalNodes>
      <leafValues>
        -3.9064025878906250e-01 1.1145033687353134e-01</leafValues></_>
    <_>
      <internalNodes>
        0 -1 53671 -6.0696166474372149e-04</internalNodes>
      <leafValues>
        -3.4453764557838440e-01 1.1440084874629974e-01</leafValues></_></weakClassifiers></stage5>
</opencv_storage>
