<?xml version="1.0"?>
<opencv_storage>
<stage4>
  <maxWeakCount>17</maxWeakCount>
  <stageThreshold>-1.7271050214767456e+00</stageThreshold>
  <weakClassifiers>
    <_>
      <internalNodes>
        0 -1 77901 -4.0030572563409805e-03</internalNodes>
      <leafValues>
        3.1414869427680969e-01 -6.7974549531936646e-01</leafValues></_>
    <_>
      <internalNodes>
        0 -1 28058 5.1695825532078743e-03</internalNodes>
      <leafValues>
        -3.5665220022201538e-01 5.0019335746765137e-01</leafValues></_>
    <_>
      <internalNodes>
        0 -1 78138 -4.1301438614027575e-05</internalNodes>
      <leafValues>
        2.6084738969802856e-01 -3.5738995671272278e-01</leafValues></_>
    <_>
      <internalNodes>
        0 -1 77440 -9.2675059568136930e-04</internalNodes>
      <leafValues>
        -6.1596244573593140e-01 1.5905363857746124e-01</leafValues></_>
    <_>
      <internalNodes>
        0 -1 77921 1.0038211941719055e-02</internalNodes>
      <leafValues>
        -1.1760957539081573e-01 6.7110365629196167e-01</leafValues></_>
    <_>
      <internalNodes>
        0 -1 54293 -1.7516892403364182e-02</internalNodes>
      <leafValues>
        3.0788153409957886e-01 -3.5741221904754639e-01</leafValues></_>
    <_>
      <internalNodes>
        0 -1 50323 3.0177328735589981e-03</internalNodes>
      <leafValues>
        -2.8177228569984436e-01 3.6034810543060303e-01</leafValues></_>
    <_>
      <internalNodes>
        0 -1 77485 -2.1918956190347672e-03</internalNodes>
      <leafValues>
        -7.5812125205993652e-01 1.0134494304656982e-01</leafValues></_>
    <_>
      <internalNodes>
        0 -1 58393 3.7696179933845997e-03</internalNodes>
      <leafValues>
        1.1371012032032013e-01 -6.6833865642547607e-01</leafValues></_>
    <_>
      <internalNodes>
        0 -1 6075 -2.9393497388809919e-03</internalNodes>
      <leafValues>
        4.8617777228355408e-01 -2.1225666999816895e-01</leafValues></_>
    <_>
      <internalNodes>
        0 -1 5327 4.6334639191627502e-03</internalNodes>
      <leafValues>
        -1.6108655929565430e-01 5.1071161031723022e-01</leafValues></_>
    <_>
      <internalNodes>
        0 -1 45977 -2.0511589944362640e-01</internalNodes>
      <leafValues>
        3.7922433018684387e-01 -2.2967077791690826e-01</leafValues></_>
    <_>
      <internalNodes>
        0 -1 26766 -9.4438024098053575e-04</internalNodes>
      <leafValues>
        -6.5072578191757202e-01 1.1743444204330444e-01</leafValues></_>
    <_>
      <internalNodes>
        0 -1 20352 1.8907510675489902e-03</internalNodes>
      <leafValues>
        9.2937707901000977e-02 -6.7372471094131470e-01</leafValues></_>
    <_>
      <internalNodes>
        0 -1 68496 1.0130118578672409e-02</internalNodes>
      <leafValues>
        -2.0349137485027313e-01 3.5027760267257690e-01</leafValues></_>
    <_>
      <internalNodes>
        0 -1 55025 3.3295433968305588e-03</internalNodes>
      <leafValues>
        9.2810086905956268e-02 -7.1135479211807251e-01</leafValues></_>
    <_>
      <internalNodes>
        0 -1 67402 8.0512553453445435e-02</internalNodes>
      <leafValues>
        -1.4574331045150757e-01 5.0550067424774170e-01</leafValues></_></weakClassifiers></stage4>
</opencv_storage>
